{"type":"NeuralNetwork","sizes":[784,32,64,32,1],"layers":[{"weights":[],"biases":[]},{"weights":[[-0.13590602576732635,-0.07532530277967453,0.11501926183700562,0.09275490045547485,-0.03569707274436951,0.08417131751775742,-0.056191135197877884,-0.043384622782468796,-0.04259350895881653,-0.1916319876909256,0.08072060346603394,0.053615670651197433,-0.051089461892843246,0.1245313286781311,0.19749581813812256,0.17103923857212067,-0.02122209593653679,0.08784247189760208,0.16943693161010742,0.012326708994805813,0.003082223702222109,0.017230680212378502,-0.09966572374105453,0.12349820137023926,0.0012751609319821,0.031140511855483055,0.11217974871397018,0.013081496581435204,0.13771040737628937,0.10059068351984024,-0.17008280754089355,-0.014279954135417938,0.14048124849796295,0.06744524836540222,-0.15777574479579926,-0.1591254472732544,-0.08817170560359955,0.030622612684965134,0.07437412440776825,-0.13093070685863495,0.001674136845394969,-0.1380184292793274,0.001929056248627603,0.06782782077789307,-0.1203131228685379,0.1480008065700531,-0.03510744124650955,0.17340052127838135,0.1302664875984192,0.09168631583452225,0.058024827390909195,0.13928517699241638,0.15791113674640656,0.027929099276661873,-0.12390106916427612,-0.11847107112407684,0.10512550920248032,-0.0666668564081192,-0.06980816274881363,0.1329524964094162,0.01981339603662491,-0.046138256788253784,0.19975338876247406,-0.1753319948911667,-0.18901950120925903,-0.10047131031751633,0.07264460623264313,0.00004874865408055484,-0.08823737502098083,-0.06861839443445206,0.022976189851760864,0.07784155011177063,0.05498228594660759,0.16483794152736664,-0.17160968482494354,0.031184714287519455,0.16005948185920715,0.18341046571731567,0.09731467068195343,0.15519696474075317,-0.19474560022354126,-0.189534530043602,-0.13058695197105408,0.10639805346727371,0.18452821671962738,-0.10218705981969833,0.11033854633569717,0.022314822301268578,0.13266237080097198,-0.1165722981095314,-0.05895736441016197,-0.04752790927886963,0.10807448625564575,0.035293541848659515,-0.08084474503993988,-0.19670291244983673,0.0768134668469429,0.19102539122104645,-0.018101796507835388,-0.04680488631129265,-0.05833011493086815,-0.030274536460638046,-0.06432495266199112,-0.07715941220521927,0.0998002290725708,0.08972559869289398,0.00011514328070916235,-0.1458229124546051,0.11266008019447327,-0.03325628116726875,0.14016863703727722,-0.003953656647354364,-0.13194896280765533,0.07865705341100693,0.1983037143945694,-0.19895298779010773,0.07093647867441177,0.15456239879131317,0.09506674855947495,-0.09168723970651627,-0.06679290533065796,0.07703201472759247,-0.047794558107852936,0.055669426918029785,-0.047849059104919434,-0.02134024165570736,-0.04492286592721939,-0.13539651036262512,0.013695110566914082,-0.10107778012752533,0.1941068470478058,0.16354210674762726,0.03596840426325798,-0.012783233076334,0.11499354988336563,0.1814573109149933,0.010263338685035706,0.19430632889270782,-0.016496993601322174,-0.16419535875320435,-0.027568623423576355,0.014934822916984558,-0.07050814479589462,-0.11682965606451035,-0.19390462338924408,0.13361620903015137,-0.03897717595100403,0.1312500536441803,-0.10779624432325363,0.1759888082742691,0.11539392173290253,-0.09375691413879395,-0.12552721798419952,0.03237294778227806,-0.004832340404391289,-0.1705867499113083,0.03081446699798107,0.19474166631698608,0.19620445370674133,-0.15875855088233948,0.048969294875860214,-0.1303599774837494,0.16380037367343903,-0.1032460480928421,0.10489742457866669,-0.07737545669078827,0.14364129304885864,0.05255914852023125,-0.022441290318965912,-0.0600513219833374,0.04056322202086449,0.17384034395217896,0.10646121948957443,0.10497008264064789,0.03203432634472847,0.06292657554149628,-0.12267054617404938,-0.16214130818843842,0.04421189799904823,0.14914852380752563,-0.18012060225009918,-0.11028324067592621,-0.08328418433666229,-0.1334344744682312,0.053069617599248886,-0.010703190229833126,-0.04869326949119568,-0.021967245265841484,-0.11589719355106354,-0.05921105295419693,0.00838587898761034,0.17800503969192505,-0.12409539520740509,-0.01486940123140812,0.046617839485406876,0.1698664426803589,-0.010675142519176006,0.17138445377349854,-0.019601920619606972,0.1793598234653473,-0.08188887685537338,-0.18749572336673737,-0.1743355393409729,-0.16521941125392914,-0.05076900124549866,-0.07666314393281937,-0.04449163004755974,0.05707664042711258,-0.008725046180188656,0.12805093824863434,-0.15146231651306152,0.056830454617738724,-0.10551879554986954,0.14695286750793457,0.14841878414154053,0.16343730688095093,0.1531684547662735,0.1243644505739212,-0.1900499016046524,-0.19078250229358673,-0.06345552206039429,-0.046225737780332565,0.008505385369062424,-0.050088196992874146,0.05477562174201012,0.15266340970993042,0.0468282513320446,-0.031605251133441925,0.08442465215921402,0.025592083111405373,-0.17994076013565063,0.1399640291929245,-0.04216351360082626,0.010544243268668652,0.15222135186195374,-0.06762649863958359,0.052035123109817505,0.18846668303012848,-0.1527598351240158,0.0119399419054389,0.048522353172302246,0.19117973744869232,-0.08728300034999847,-0.13086135685443878,-0.023225076496601105,0.13874731957912445,-0.0035275218542665243,0.15093669295310974,-0.008187656290829182,-0.1283894032239914,0.19988802075386047,0.05924709513783455,-0.19227080047130585,-0.09093866497278214,0.01074978243559599,-0.15982846915721893,-0.018842557445168495,-0.1767084151506424,-0.08524496853351593,-0.043003566563129425,0.17360524833202362,0.030896445736289024,-0.10933956503868103,-0.07318508625030518,0.038982514292001724,-0.055250123143196106,-0.15230733156204224,0.02143140137195587,0.009246713481843472,-0.03177516907453537,-0.059164226055145264,0.11031380295753479,0.12016575783491135,-0.14267410337924957,-0.0252565685659647,-0.0634969174861908,0.016001639887690544,0.1451929211616516,0.12406850606203079,-0.10851937532424927,0.12977740168571472,0.12238778173923492,-0.09441538155078888,0.01674373634159565,-0.06409263610839844,-0.059763919562101364,-0.06862802058458328,0.10966312140226364,-0.18523374199867249,-0.037164781242609024,0.09001468867063522,0.04507133737206459,-0.11100780963897705,0.04498293995857239,0.16515929996967316,0.12215176969766617,0.01213124394416809,0.028498126193881035,-0.17583271861076355,-0.03622611239552498,-0.10796927660703659,0.1554129421710968,-0.16669446229934692,0.10190428793430328,0.0007954751490615308,0.12853538990020752,-0.01859414577484131,0.07233788073062897,0.11028613150119781,-0.05837729573249817,-0.04194280132651329,0.1509804129600525,0.14282609522342682,-0.1208469569683075,0.1576753854751587,-0.176934614777565,-0.1692586988210678,-0.01307850331068039,0.02628847397863865,0.20929259061813354,-0.10177188366651535,-0.14369814097881317,0.007874773815274239,-0.003120126435533166,0.0534539669752121,0.12452187389135361,0.08435609191656113,-0.010165086016058922,0.18028393387794495,-0.18017591536045074,-0.08592158555984497,0.17580319941043854,0.14589478075504303,-0.004755690228193998,-0.017470257356762886,-0.14105680584907532,-0.0988764539361,-0.12903200089931488,0.017783736810088158,0.1609984189271927,-0.04254147782921791,-0.06225716695189476,-0.1791115552186966,0.1873445361852646,-0.04653589054942131,0.15671388804912567,-0.03183794021606445,-0.16553281247615814,0.06214634329080582,-0.1843627393245697,0.1082068681716919,-0.168657585978508,-0.15459518134593964,0.21859346330165863,-0.18239471316337585,0.03868284448981285,-0.15878351032733917,0.018497692421078682,-0.04291565716266632,0.10196737945079803,-0.18626657128334045,-0.012037115171551704,0.11440838128328323,0.19225093722343445,-0.006137165706604719,0.1433485448360443,-0.124325230717659,0.008169029839336872,0.06260602921247482,0.09415804594755173,-0.1667308509349823,-0.009045788086950779,0.08627430349588394,0.11027264595031738,-0.15052689611911774,-0.022856730967760086,-0.18300668895244598,0.1082424446940422,0.15147224068641663,-0.024478968232870102,0.11882288753986359,0.07080066204071045,-0.050828106701374054,0.15262851119041443,-0.0842769667506218,-0.04681990668177605,-0.1505654752254486,-0.02505330927670002,0.178628608584404,-0.0463925302028656,-0.1195250153541565,-0.1642971932888031,-0.0701586976647377,-0.08822929114103317,0.06523296982049942,0.10959558188915253,-0.0001530567678855732,-0.10012345761060715,-0.09367211908102036,0.08593717962503433,0.1735411286354065,0.04631645977497101,0.15914542973041534,-0.01904531940817833,0.0845472440123558,0.13222073018550873,-0.12187641859054565,-0.07754477113485336,0.10583002120256424,0.18828795850276947,0.18363657593727112,0.19178999960422516,0.023138001561164856,0.19359184801578522,-0.03005153499543667,-0.15406306087970734,0.1313735693693161,-0.17617692053318024,0.17520257830619812,-0.1887204647064209,-0.013091969303786755,0.1924242228269577,0.15169990062713623,-0.09167811274528503,0.11252345144748688,-0.17361406981945038,0.013490245677530766,-0.034622691571712494,-0.041370730847120285,-0.11042877286672592,-0.09074165672063828,-0.07436562329530716,0.049952276051044464,0.01701320707798004,-0.17962555587291718,0.2161151021718979,0.05646805092692375,0.08255422860383987,-0.009728207252919674,0.0752999410033226,0.021527444943785667,0.14614368975162506,0.0520368292927742,-0.14741775393486023,0.19479739665985107,0.07027406245470047,-0.04238848760724068,-0.18754978477954865,0.16636979579925537,0.09130670130252838,-0.03816049546003342,0.04790213331580162,0.03829674422740936,0.09490884095430374,-0.07965327054262161,-0.041354261338710785,0.13055196404457092,0.19653280079364777,0.04239984229207039,-0.11538117378950119,-0.00800500437617302,-0.13589349389076233,0.16293740272521973,-0.15262703597545624,-0.03297768533229828,-0.1753089874982834,0.19094063341617584,0.0768909826874733,-0.18532569706439972,0.1817692220211029,0.04678172990679741,-0.020543038845062256,-0.17007452249526978,0.05397157371044159,0.10500740259885788,-0.14087852835655212,0.1251467764377594,0.12919746339321136,0.11407464742660522,0.08683285862207413,0.0964139997959137,-0.00014749808178748935,-0.06042618677020073,-0.04119030758738518,0.03335074707865715,0.13880790770053864,0.04113677516579628,-0.1854034811258316,0.06517045944929123,-0.019951391965150833,0.12976209819316864,-0.15824533998966217,0.10199975967407227,0.20823363959789276,-0.12760449945926666,0.09219460934400558,0.15475477278232574,0.0331583134829998,-0.032010518014431,-0.024219799786806107,0.1356363296508789,0.14340336620807648,0.016762474551796913,-0.04826044291257858,0.12904463708400726,0.15359175205230713,0.13946324586868286,0.11021891981363297,-0.11982135474681854,0.12444958835840225,-0.17118433117866516,0.0138235567137599,-0.02632829360663891,0.10354204475879669,-0.054400186985731125,-0.1407323032617569,0.11866756528615952,0.03218091279268265,0.055739983916282654,-0.1784549355506897,-0.11619262397289276,-0.11131006479263306,0.20265473425388336,-0.04140907898545265,-0.15577232837677002,-0.019930655136704445,-0.13755778968334198,0.16024497151374817,0.01651592180132866,-0.12893986701965332,-0.013942110352218151,-0.18627847731113434,-0.12663514912128448,-0.19903774559497833,-0.1542162299156189,-0.08285143971443176,-0.0566541962325573,0.1524498611688614,0.16227418184280396,0.02260719984769821,0.018670903518795967,0.15775367617607117,-0.16916650533676147,-0.08871322870254517,-0.18236249685287476,-0.10901179164648056,-0.05445283278822899,-0.06352460384368896,0.16752290725708008,0.1013733446598053,0.024226652458310127,0.18847137689590454,0.047006454318761826,-0.11222228407859802,0.12661416828632355,-0.14025110006332397,-0.17049279808998108,-0.1642969846725464,0.04248736798763275,0.10055886954069138,0.025432195514440536,0.014276149682700634,0.007156704552471638,0.1319395750761032,-0.10549508035182953,-0.04762042313814163,-0.18044357001781464,0.0713142678141594,-0.056419748812913895,0.030824271962046623,0.007730502635240555,0.1022210493683815,-0.1755496710538864,0.1983283907175064,-0.013846052810549736,0.029904449358582497,-0.08967415988445282,-0.006214407738298178,-0.1274498850107193,-0.0065992288291454315,0.08920834958553314,0.007508553564548492,-0.04513752833008766,0.14640885591506958,0.15234512090682983,0.08379972726106644,0.17097856104373932,0.1140165627002716,-0.07001912593841553,0.03994351997971535,0.11620572209358215,-0.1413108855485916,0.1696314513683319,-0.18501152098178864,0.07824105769395828,-0.03590868413448334,-0.15487852692604065,0.1318494826555252,0.09275263547897339,-0.005816884804517031,-0.13538360595703125,-0.06908170133829117,0.18067754805088043,0.04106589034199715,0.05857933685183525,0.17571444809436798,-0.05244775861501694,0.19582223892211914,0.04539201408624649,-0.17889080941677094,0.13551098108291626,-0.0587412491440773,-0.0858268290758133,0.07984434813261032,0.1009814590215683,0.18197262287139893,-0.08984172344207764,0.011840448714792728,0.014402862638235092,-0.026439547538757324,-0.057835668325424194,0.046407248824834824,-0.03214466571807861,0.034781843423843384,0.1939418911933899,0.08440709859132767,0.18596714735031128,0.1511535942554474,-0.12036459147930145,0.14167790114879608,0.03893973305821419,-0.13922204077243805,0.08486662805080414,-0.1702248901128769,-0.031788621097803116,-0.13344134390354156,-0.023678673431277275,0.13767272233963013,0.03545306995511055,-0.13610154390335083,0.04688039422035217,0.015111149288713932,0.08402211964130402,-0.05494435504078865,-0.16440925002098083,-0.02810949645936489,0.07349241524934769,-0.10754232853651047,0.10644529014825821,-0.074038065969944,-0.19442111253738403,-0.1461317390203476,-0.15698111057281494,-0.1465732455253601,-0.030073313042521477,0.10108374059200287,0.14484873414039612,0.09715040028095245,0.0198168084025383,0.10579926520586014,-0.009780633263289928,-0.1539907306432724,-0.02699572592973709,-0.13770447671413422,-0.1430473029613495,-0.13384227454662323,0.1817617118358612,-0.050185538828372955,0.11937643587589264,-0.12610304355621338,0.0335492342710495,-0.08527226746082306,0.1342255026102066,-0.13824400305747986,0.1621735841035843,-0.15605483949184418,0.10539055615663528,-0.16922640800476074,0.07193957269191742,0.1200685054063797,-0.049967020750045776,0.13903793692588806,0.10376863181591034,-0.02872478775680065,0.19270366430282593,-0.12548112869262695,-0.14026063680648804,0.09167825430631638,0.15897653996944427,0.011815614067018032,0.1753607839345932,-0.005500746425241232,0.013767746277153492,-0.06830848753452301,-0.062476031482219696,0.14849014580249786,0.15487976372241974,0.17272871732711792,-0.1103510782122612,0.1621665060520172,0.17017723619937897,0.16224102675914764,0.1859777867794037,0.10657905042171478,-0.08689127117395401,0.005633561871945858,0.0999334380030632,0.18719540536403656,0.0501822903752327,0.04577011242508888,0.19436602294445038,-0.10180157423019409,0.15419349074363708,0.1572786420583725,0.13538077473640442,0.01329920906573534,0.17788302898406982,-0.14002087712287903,0.034297194331884384,-0.12021558731794357,0.09682206064462662,-0.09699656814336777,-0.1450522094964981,0.10622978210449219,0.15327270328998566,-0.12275593727827072,-0.0030909215565770864,0.15372899174690247,-0.16914837062358856,0.07948452234268188,0.1757102608680725,-0.04512877017259598,-0.06628973037004471,0.10701458156108856,-0.12316881120204926,-0.18966713547706604,-0.06322900205850601,0.03435530140995979,-0.1323567032814026,-0.08304945379495621,-0.1972881257534027,-0.18408721685409546,-0.1876947432756424,-0.07407507300376892,-0.02823198214173317,-0.18786202371120453,-0.04540758952498436,-0.09538545459508896,0.08511868119239807,-0.16546693444252014,0.14326709508895874,-0.13624869287014008,-0.07856497168540955,-0.0788450613617897,-0.16298246383666992,0.11228278279304504,-0.18656574189662933,-0.025839870795607567,-0.03851580619812012,0.1250213086605072,0.006775150075554848,0.19247213006019592,0.023913893848657608,0.0373416431248188,0.09004312008619308,-0.09499000012874603,-0.14348523318767548,0.03187855705618858,0.10270395874977112,-0.0791701152920723,0.038101233541965485,-0.05727970227599144,0.07798110693693161,-0.077417753636837,-0.08949851244688034,-0.14282678067684174,-0.0994013324379921,0.014793377369642258,-0.045438576489686966,0.12141724675893784,0.06568866223096848,0.16509735584259033,-0.055684514343738556,0.1127251386642456],[-0.026500893756747246,0.0605807788670063,-0.19274626672267914,0.10257832705974579,-0.10967545211315155,0.03963295742869377,-0.19063712656497955,0.05321837589144707,-0.10009395331144333,-0.043097928166389465,0.05563182756304741,-0.006094468291848898,0.10844266414642334,-0.01708041876554489,0.017081033438444138,0.1784270852804184,0.137223020195961,0.05312207341194153,0.10528091341257095,0.17522671818733215,-0.06539371609687805,-0.06892943382263184,0.09533508867025375,-0.0681343674659729,-0.14011293649673462,-0.10020454972982407,0.015342215076088905,-0.06376271694898605,0.1836148351430893,0.1029607504606247,0.01249383483082056,0.010971820913255215,0.18441881239414215,0.01846628077328205,-0.12619127333164215,-0.16425450146198273,-0.025421127676963806,0.036552250385284424,0.1571473479270935,0.12248056381940842,0.019965127110481262,0.17964927852153778,-0.07789647579193115,0.19733214378356934,0.05557859688997269,-0.1517004668712616,-0.17715860903263092,-0.04987579956650734,-0.16962163150310516,0.006736478302627802,-0.11364222317934036,-0.007799111306667328,-0.1375942975282669,0.08347949385643005,-0.0842786356806755,-0.14759579300880432,0.13337430357933044,0.02533242106437683,-0.038406938314437866,-0.14958758652210236,-0.06835412234067917,-0.12471473962068558,0.1811964064836502,-0.11416298896074295,-0.0003458729188423604,-0.17294366657733917,-0.05096382647752762,0.11435889452695847,-0.09796419739723206,-0.15337200462818146,0.187149778008461,-0.13797900080680847,-0.13048160076141357,0.016370464116334915,0.0947379320859909,0.11308146268129349,-0.06093206629157066,-0.15381117165088654,-0.01894715055823326,-0.05097886919975281,0.06680494546890259,0.09981539100408554,-0.07879160344600677,0.12800359725952148,0.0924929678440094,0.13958771526813507,-0.06852559000253677,0.13227622210979462,0.14801530539989471,-0.13919124007225037,0.008676979690790176,0.1629883050918579,0.14485253393650055,-0.13054493069648743,-0.03220241144299507,0.055918049067258835,-0.04197193682193756,-0.1641467958688736,-0.13391049206256866,0.1264784336090088,-0.17719367146492004,0.18690043687820435,-0.2004554569721222,0.057002369314432144,0.05945168808102608,0.005795713979750872,0.11688608676195145,-0.03820420056581497,-0.04370886832475662,0.1882597953081131,-0.10484892129898071,-0.037655990570783615,-0.11844465881586075,0.02375168167054653,0.04844818636775017,0.09488260746002197,0.1307588815689087,0.17762491106987,0.06493742763996124,-0.16300560534000397,0.1488388031721115,0.07918350398540497,0.006561099551618099,0.05192084237933159,-0.19115027785301208,-0.07228954136371613,0.09820859134197235,0.024400491267442703,0.05942750349640846,0.05777474492788315,0.14118348062038422,-0.06285276263952255,0.14726519584655762,-0.037792060524225235,-0.16240069270133972,-0.12217116355895996,-0.12831395864486694,0.14752240478992462,-0.0729164332151413,0.019398881122469902,0.17291571199893951,0.18855184316635132,-0.025112319737672806,0.16464747488498688,-0.010599803179502487,0.15392158925533295,0.10276874899864197,-0.1677769422531128,-0.053797222673892975,0.1615341454744339,-0.11082157492637634,0.1957108974456787,0.14724379777908325,-0.1895591914653778,0.09915348142385483,0.05696543678641319,-0.17334675788879395,0.08643166720867157,0.018894361332058907,-0.024661723524332047,-0.034638918936252594,0.04642584174871445,-0.010908719152212143,-0.17562450468540192,0.06659072637557983,0.17903229594230652,0.15330004692077637,0.10016998648643494,0.06732390075922012,0.1749020367860794,0.07526208460330963,0.01167338527739048,0.14239780604839325,0.06374608725309372,-0.18246759474277496,0.04827422648668289,-0.009783775545656681,0.00003061989991692826,-0.16655023396015167,0.10026043653488159,0.028252946212887764,0.12240108102560043,-0.0818922147154808,0.053250864148139954,-0.013470317237079144,0.07136785984039307,0.13604436814785004,0.1832190454006195,-0.05619074031710625,0.11690876632928848,-0.07052580267190933,-0.1451738476753235,0.058904144912958145,0.10464492440223694,0.0642789751291275,-0.1687903255224228,0.1893991082906723,0.025360800325870514,-0.14943212270736694,-0.046643469482660294,-0.1890198439359665,-0.02542537823319435,-0.009418557398021221,-0.03315984830260277,0.03468970209360123,0.1482582688331604,-0.1824481338262558,-0.00670116301625967,-0.1706589162349701,0.18412142992019653,-0.06520012766122818,-0.06848299503326416,0.05881943926215172,0.038575004786252975,-0.17975565791130066,0.013702227734029293,-0.09726405888795853,-0.16595230996608734,0.11145401746034622,-0.05319618061184883,-0.1452910602092743,-0.07407109439373016,0.1560068577528,0.1781875491142273,0.1360493004322052,-0.024487009271979332,-0.06085005775094032,0.07148469984531403,-0.06611044704914093,0.19630418717861176,0.15633055567741394,0.12088613957166672,-0.10757987946271896,-0.06502728909254074,0.12826624512672424,0.055430132895708084,-0.1532726138830185,0.1781247854232788,-0.09649835526943207,0.12009090185165405,0.1445072442293167,0.18532836437225342,-0.038292013108730316,0.12817873060703278,0.0647977814078331,-0.1808263659477234,0.11884745210409164,0.09983338415622711,-0.13513337075710297,0.09998191148042679,-0.09775645285844803,-0.012205983512103558,0.0311374980956316,-0.10366012156009674,-0.07962688058614731,-0.06544333696365356,-0.1625891923904419,0.13235007226467133,-0.0580047108232975,-0.16727250814437866,0.14498719573020935,-0.05918532609939575,0.07833109050989151,-0.17236343026161194,0.18248817324638367,-0.06645943969488144,-0.19641193747520447,0.002730356063693762,-0.1672283113002777,-0.17980171740055084,-0.033908911049366,0.044342122972011566,0.03221389651298523,0.053851667791604996,0.146149680018425,0.061007898300886154,-0.1490221470594406,0.09118743240833282,-0.07752936333417892,-0.11061874032020569,0.08760257065296173,0.1546727418899536,-0.15793953835964203,0.008831841871142387,0.07003246247768402,0.104712575674057,0.03382333740592003,-0.11494158208370209,0.10466102510690689,-0.14928466081619263,0.14483554661273956,-0.15453487634658813,0.16880014538764954,-0.15626032650470734,-0.2010536640882492,0.07462550699710846,-0.16157160699367523,0.09187810122966766,0.06631229817867279,0.08926371484994888,0.08292293548583984,-0.011438247747719288,0.07008340954780579,0.167561337351799,-0.12107861042022705,-0.03354571759700775,0.025745699182152748,0.1430288404226303,-0.00004516322951531038,0.04805761203169823,0.16554293036460876,0.09067267924547195,-0.030150389298796654,0.1734696626663208,0.03162873908877373,-0.10202770680189133,0.14252988994121552,-0.10925427824258804,-0.025163860991597176,0.01736043207347393,-0.18386881053447723,0.056484393775463104,0.0043286168947815895,-0.15384246408939362,0.056469280272722244,0.18272340297698975,-0.0007491748547181487,0.1770716905593872,-0.02860293537378311,0.05120915174484253,0.11598564684391022,0.10414405167102814,-0.17228208482265472,-0.03016667068004608,0.07653384655714035,0.07399063557386398,-0.02707737870514393,-0.06018032506108284,0.010041322559118271,-0.06278607994318008,-0.07480935752391815,0.1070207953453064,0.14892889559268951,0.06174150109291077,-0.19924449920654297,0.050157517194747925,-0.1583501100540161,0.1948135644197464,0.16460935771465302,0.1497625708580017,0.0089915432035923,-0.07839395105838776,-0.11428158730268478,-0.039084285497665405,-0.019177494570612907,0.07660631835460663,-0.12462558597326279,0.014622005634009838,-0.11637777835130692,-0.024275243282318115,-0.192470520734787,0.06689966470003128,-0.04018272086977959,-0.06952215731143951,-0.011819443665444851,-0.0882134884595871,-0.18066535890102386,0.046615954488515854,-0.19552604854106903,0.14515337347984314,-0.19219806790351868,0.06088520959019661,-0.05990547686815262,0.06098092719912529,-0.154616579413414,0.15346196293830872,0.1741236001253128,0.15871010720729828,-0.061466947197914124,0.17863984405994415,-0.0791676864027977,0.044938165694475174,0.1851484328508377,-0.011261544190347195,0.16811512410640717,0.049419764429330826,-0.05332642421126366,-0.1643299013376236,-0.07673890888690948,-0.11364736407995224,-0.06247760355472565,0.05163086950778961,-0.0003588902181945741,-0.0889253318309784,-0.17124775052070618,-0.09511242061853409,0.08355171233415604,0.13094507157802582,-0.06994067877531052,-0.13498875498771667,-0.026631753891706467,-0.12089241296052933,0.11940708011388779,0.1805652230978012,-0.18819887936115265,-0.016819758340716362,0.09068960696458817,-0.02973892167210579,0.052109211683273315,0.09987343847751617,-0.13451224565505981,0.12208103388547897,0.03491715341806412,-0.008063708432018757,-0.07904265820980072,-0.11125568300485611,0.08646776527166367,-0.05833767354488373,-0.052389487624168396,0.06491473317146301,0.1926448792219162,0.16157196462154388,-0.03623518720269203,0.12961053848266602,-0.13460583984851837,-0.1733059585094452,-0.08428163081407547,0.1370871663093567,0.07078355550765991,-0.10985177755355835,0.0300741009414196,-0.0022180480882525444,0.1073286160826683,0.14089831709861755,0.10952910780906677,-0.09196113049983978,0.012111187912523746,-0.040213704109191895,-0.07051143795251846,-0.132026806473732,0.11173584312200546,-0.05065435543656349,0.029681310057640076,0.016496438533067703,-0.015884695574641228,-0.13439567387104034,-0.009829000569880009,-0.07947468012571335,0.0945720449090004,-0.00183756067417562,-0.1070980653166771,-0.01902627758681774,-0.0187819954007864,0.06249392032623291,0.06087635084986687,-0.08078844100236893,-0.11070531606674194,0.1252729892730713,-0.053639672696590424,-0.19140960276126862,0.02570810168981552,0.17943541705608368,-0.009907382540404797,-0.1401183009147644,-0.18696947395801544,-0.1958571821451187,0.11621066182851791,-0.02558351494371891,0.0199854988604784,-0.027177581563591957,-0.07669452577829361,-0.1598425954580307,-0.18280503153800964,0.1361035853624344,-0.09225615113973618,-0.05367487296462059,0.14301040768623352,-0.0882977768778801,-0.09536220878362656,-0.06732545047998428,-0.12568695843219757,0.018466690555214882,0.18225479125976562,0.07204939424991608,0.19415199756622314,-0.1678142100572586,-0.010554201900959015,0.039558496326208115,-0.008817794732749462,-0.17315414547920227,-0.0510576106607914,-0.08441438525915146,0.003617409151047468,0.0855182334780693,0.021346310153603554,0.15883192420005798,-0.14910916984081268,0.19079454243183136,0.06809134036302567,0.1440589278936386,-0.07547294348478317,0.16829966008663177,-0.14658205211162567,0.18529386818408966,-0.05621692165732384,-0.11349402368068695,0.14052970707416534,0.1274443119764328,0.0721217468380928,0.11590111255645752,0.048155177384614944,-0.056533608585596085,-0.05315776169300079,-0.18351170420646667,-0.10415667295455933,0.12350617349147797,-0.05163979157805443,0.021614570170640945,0.14793932437896729,-0.07080641388893127,-0.0016937796026468277,0.15858928859233856,-0.08773619681596756,-0.15623046457767487,-0.02827353961765766,0.028876537457108498,-0.09574920684099197,0.10222519189119339,-0.12073877453804016,-0.1681150197982788,-0.1727885603904724,0.1498672366142273,0.19744974374771118,-0.13930797576904297,0.17785808444023132,0.039329852908849716,-0.08586206287145615,-0.18085482716560364,-0.1339331716299057,0.06147245317697525,0.1105707436800003,0.05271265283226967,0.12484888732433319,0.11965702474117279,-0.16490057110786438,0.03836063668131828,0.05922804772853851,-0.03737655282020569,-0.03123120218515396,-0.11939620226621628,-0.11463706195354462,0.1359020471572876,-0.13104256987571716,-0.01607825793325901,-0.012049424462020397,-0.0485013984143734,0.13572469353675842,0.11128738522529602,-0.07744336128234863,0.11929837614297867,0.03715420141816139,0.0916106179356575,-0.022685116156935692,-0.1458868831396103,0.027710789814591408,-0.11937185376882553,0.19860392808914185,0.09279609471559525,0.013293801806867123,-0.08564590662717819,0.18969480693340302,0.06227407976984978,-0.15584607422351837,-0.1721038669347763,-0.057271379977464676,-0.19618354737758636,0.15186022222042084,-0.10564085841178894,0.07512952387332916,-0.14561457931995392,0.054708417505025864,0.16602405905723572,0.17810353636741638,-0.08304716646671295,0.005200532730668783,-0.13870294392108917,-0.18437673151493073,-0.11650185286998749,0.03907688334584236,-0.16723448038101196,-0.0887652039527893,-0.14798517525196075,0.1493282914161682,0.023550134152173996,-0.05683082714676857,-0.027708321809768677,0.03878670185804367,0.1611020863056183,-0.11904165148735046,-0.13190621137619019,0.11266934126615524,-0.12709082663059235,-0.2012377828359604,0.02961117774248123,0.04089537262916565,-0.060671452432870865,-0.18336749076843262,-0.06458000838756561,-0.051614586263895035,0.11480928212404251,-0.13155579566955566,0.04419143497943878,0.14744485914707184,0.034509774297475815,0.06211791932582855,0.026261884719133377,-0.14211654663085938,0.09518275409936905,-0.01526858564466238,0.03554920852184296,0.11980148404836655,0.06566711515188217,-0.027029043063521385,-0.019518589600920677,0.15880338847637177,0.10009896010160446,0.028250444680452347,-0.029841195791959763,0.02989093028008938,0.022623565047979355,-0.11944357305765152,0.13944578170776367,0.06859984248876572,0.15852640569210052,-0.1352441906929016,0.1975048929452896,-0.1326204389333725,0.15363915264606476,0.1296677142381668,-0.14227193593978882,-0.05803215876221657,0.057471100240945816,-0.17933134734630585,0.06651554256677628,0.02984047867357731,0.18523339927196503,-0.027426209300756454,0.10605978220701218,0.13571280241012573,0.008410417474806309,-0.011670274659991264,0.031745318323373795,0.04213897883892059,0.037809886038303375,0.11912589520215988,0.16167214512825012,-0.038539133965969086,-0.03281411528587341,-0.07444708049297333,0.17146338522434235,-0.13924270868301392,-0.0918552577495575,-0.028155339881777763,0.053542591631412506,-0.10289141535758972,0.10478976368904114,0.19303016364574432,0.06875389069318771,-0.020407382398843765,0.17006121575832367,0.16351620852947235,-0.17913980782032013,0.16212816536426544,-0.19647160172462463,0.18145650625228882,-0.17843353748321533,-0.03837814927101135,0.05009377747774124,-0.14918841421604156,-0.021015310660004616,0.17078624665737152,-0.11524996161460876,-0.1735050082206726,-0.06079201400279999,0.08806080371141434,-0.1713838130235672,-0.12811757624149323,0.08061486482620239,-0.07715244591236115,-0.16290131211280823,-0.12875449657440186,0.07011885941028595,0.08011326193809509,-0.1970011442899704,0.061002571135759354,0.11034265160560608,-0.1790938526391983,0.06173976883292198,0.16153880953788757,-0.14000976085662842,-0.02197810634970665,0.12184665352106094,0.12396685779094696,0.19203095138072968,0.07294706255197525,-0.19076833128929138,0.13778620958328247,-0.05446100980043411,0.0682447999715805,0.07592764496803284,-0.12364107370376587,-0.0742138922214508,-0.007265818305313587,0.10190723091363907,-0.017160408198833466,-0.14202018082141876,0.01581476628780365,-0.022404426708817482,0.017063718289136887,-0.07202457636594772,-0.14819662272930145,-0.19546683132648468,-0.07509759813547134,0.19398248195648193,-0.034301795065402985,0.15896356105804443,-0.0072554610669612885,0.14876876771450043,0.10865522921085358,0.15188011527061462,0.13829979300498962,0.08476459980010986,0.11902306973934174,0.04090217128396034,0.057590682059526443,0.010283478535711765,-0.0947548970580101,0.1703561544418335,-0.07582380622625351,0.14774088561534882,0.025544656440615654,0.0040974728763103485,0.1381276547908783,0.08283378928899765,0.04936431720852852,0.007284278050065041,-0.0625811219215393,0.0720152035355568,0.03243045136332512,-0.19874756038188934,-0.0660364180803299,0.03889155387878418,0.17556902766227722,-0.10470613092184067,0.17041388154029846,-0.14864622056484222,0.10777368396520615,-0.03868706151843071,0.13412758708000183,0.057261280715465546,-0.19284819066524506,-0.018900737166404724,-0.04865508899092674,-0.17596708238124847,-0.1151404157280922,-0.0808020830154419,0.042070887982845306,-0.17619048058986664,0.16755461692810059,-0.08699892461299896,0.18854162096977234,-0.08178981393575668,0.09332077950239182,-0.18064576387405396,0.1712617576122284,0.03511311858892441,0.11917359381914139,-0.03179607912898064,-0.005473859142512083,0.08171742409467697,-0.006608166731894016,-0.16007500886917114,0.05738281086087227,-0.14068132638931274],[-0.04661434143781662,-0.1041177362203598,-0.07105273753404617,-0.1312689632177353,0.09679712355136871,0.1438572108745575,-0.04721970483660698,0.08946972340345383,-0.19530200958251953,0.09059195220470428,-0.010403644293546677,0.08320052176713943,0.1337045431137085,-0.14463649690151215,0.08508507162332535,-0.11786400526762009,0.07028256356716156,-0.10902654379606247,-0.02837391011416912,0.09090966731309891,-0.030648434534668922,0.14790140092372894,-0.18622642755508423,-0.007384792435914278,0.15013925731182098,-0.11434918642044067,-0.07169029861688614,-0.14386901259422302,-0.06490329653024673,-0.04254021495580673,0.13559675216674805,-0.1649673581123352,-0.026027122512459755,-0.16563189029693604,0.16807754337787628,0.09603482484817505,-0.009981876239180565,-0.1814131885766983,-0.1325085461139679,-0.0051038372330367565,0.07741087675094604,0.04168679192662239,-0.04357186332345009,-0.09860648214817047,-0.15385812520980835,-0.049380090087652206,0.17139160633087158,0.17884142696857452,-0.0009680091170594096,-0.17400996387004852,-0.030611705034971237,-0.16814211010932922,0.01734928786754608,0.06217867136001587,-0.0516987107694149,0.035808347165584564,0.07444297522306442,-0.11797351390123367,-0.17306029796600342,-0.1497330218553543,-0.05670225992798805,-0.13716858625411987,-0.13241231441497803,-0.021289080381393433,-0.13921265304088593,-0.11111168563365936,0.059345606714487076,0.07002443820238113,-0.005630269646644592,0.1533357948064804,-0.024060111492872238,-0.13629001379013062,-0.12623511254787445,0.05853886902332306,0.007187809329479933,0.14184412360191345,-0.14941605925559998,-0.0887284204363823,0.19986313581466675,-0.08131861686706543,0.14869849383831024,0.1620667725801468,0.017880378291010857,-0.005515190772712231,-0.16613660752773285,-0.1488334983587265,0.08002879470586777,-0.012149099260568619,-0.09779626876115799,-0.015416499227285385,0.190017968416214,0.16527670621871948,-0.10443558543920517,-0.04347531870007515,-0.05130815878510475,0.15989363193511963,0.14741742610931396,0.00757624302059412,0.09051337838172913,0.06599578261375427,-0.12248441576957703,-0.004885509144514799,0.09682205319404602,0.04824894666671753,0.1128295511007309,-0.17461173236370087,0.1326044201850891,0.15248161554336548,0.14809569716453552,-0.05396264046430588,0.08897024393081665,-0.1498612016439438,0.16517841815948486,-0.04472123831510544,-0.05119052901864052,-0.03456757962703705,-0.11735253036022186,-0.12506107985973358,0.04651977866888046,-0.1976003646850586,0.14275972545146942,0.08393334597349167,0.07377182692289352,0.04976913332939148,0.13997863233089447,-0.13867896795272827,0.03314850106835365,0.012025210075080395,0.008732717484235764,-0.03495088219642639,0.09616155922412872,-0.11621155589818954,0.15148641169071198,0.06947431713342667,0.09282264113426208,-0.01936960220336914,0.0657210648059845,-0.09956547617912292,-0.18403930962085724,-0.16220124065876007,-0.17304496467113495,-0.09593719244003296,-0.059670161455869675,0.16945533454418182,0.18822911381721497,0.15764790773391724,0.13095420598983765,0.0875372663140297,0.14060260355472565,-0.053866833448410034,-0.05726676434278488,0.16194728016853333,0.04204597324132919,-0.0382503978908062,-0.07180409878492355,-0.056294240057468414,-0.04670710861682892,-0.1276537925004959,-0.019689688459038734,0.011261328123509884,-0.12382157146930695,0.08122172951698303,0.12967893481254578,-0.14776892960071564,0.15719451010227203,0.18721304833889008,0.10148018598556519,-0.06101143732666969,0.06261545419692993,-0.058482710272073746,0.12423692643642426,0.00732184574007988,0.02589789777994156,0.03405936062335968,-0.11802084743976593,-0.11191433668136597,-0.08567516505718231,-0.014092270284891129,-0.17567896842956543,-0.09532657265663147,-0.028402036055922508,0.10186149924993515,-0.16758213937282562,0.11097743362188339,-0.02490875869989395,-0.1644720733165741,-0.0546032190322876,0.07938191294670105,-0.17970174551010132,-0.07509858161211014,-0.093718022108078,-0.026844678446650505,0.009958695620298386,-0.07775016129016876,0.14186938107013702,-0.1060234010219574,-0.17859803140163422,-0.162833109498024,-0.13114942610263824,0.1584753841161728,-0.06659969687461853,-0.13918161392211914,-0.015071102418005466,0.11259891837835312,-0.1908174753189087,-0.06461544334888458,0.15321746468544006,0.1772935390472412,-0.19025030732154846,0.18629662692546844,0.1940131038427353,0.08415285497903824,-0.06684715300798416,0.04585312679409981,-0.03456517681479454,-0.08424994349479675,0.14792239665985107,-0.10129669308662415,0.1832445114850998,0.1619027554988861,-0.032967645674943924,0.017009040340781212,-0.1279670149087906,-0.10923225432634354,0.09293869137763977,-0.14880050718784332,-0.047714121639728546,-0.12613429129123688,-0.14222896099090576,0.09363383054733276,-0.071380615234375,-0.09020455181598663,0.1632331758737564,0.10956743359565735,-0.18839681148529053,0.09368177503347397,0.18803013861179352,-0.17752161622047424,0.16513602435588837,-0.19373705983161926,0.0806787759065628,-0.19272339344024658,0.11554598063230515,0.06597863137722015,0.12313632667064667,0.13055206835269928,0.059019286185503006,-0.031601857393980026,0.08110860735177994,-0.14573006331920624,0.0589325949549675,0.00019087923283223063,0.0018972703255712986,0.16970327496528625,0.13315504789352417,-0.15662653744220734,0.169931098818779,-0.17053379118442535,0.01897534728050232,0.025671763345599174,-0.12415225058794022,-0.11505664885044098,0.03204536810517311,0.1490677297115326,0.12683890759944916,0.12341081351041794,-0.09654244035482407,-0.012374588288366795,0.01512734405696392,-0.04870182275772095,0.19439579546451569,-0.024287698790431023,0.07114370912313461,-0.08469373732805252,-0.19603046774864197,-0.12791849672794342,-0.12897439301013947,-0.04708235338330269,0.019772866740822792,0.08924395591020584,-0.10503721237182617,0.052857495844364166,0.08680369704961777,0.09342030435800552,0.11161093413829803,0.040495362132787704,-0.06534028053283691,0.0076320115476846695,-0.09670225530862808,-0.16958367824554443,0.08801054954528809,-0.12230188399553299,0.09118346869945526,0.1662130504846573,0.029067542403936386,0.08489079773426056,0.10918872803449631,-0.05789787694811821,-0.05372178927063942,0.08103177696466446,0.16495880484580994,0.014416237361729145,0.1535574495792389,-0.09170909970998764,0.039235468953847885,-0.19638146460056305,-0.13694946467876434,-0.1124238446354866,0.04714668169617653,0.07801803946495056,-0.169986754655838,-0.0003838787670247257,0.120546355843544,-0.09566732496023178,-0.0259114820510149,0.11988339573144913,0.10625644028186798,-0.010443196631968021,0.11662524193525314,0.09808852523565292,-0.16955144703388214,-0.0629734992980957,0.12533634901046753,0.1367746740579605,0.10346609354019165,-0.03260521963238716,-0.08379371464252472,0.0670914351940155,-0.07269381731748581,0.07479947805404663,0.1340487152338028,-0.0710429847240448,0.19355152547359467,-0.14942093193531036,-0.026276620104908943,-0.1790975034236908,0.008234687149524689,0.03345227614045143,-0.1626112014055252,-0.09723888337612152,-0.16322249174118042,-0.09177441895008087,-0.09956113994121552,-0.168355792760849,0.016471445560455322,-0.0014434587210416794,0.03799191489815712,0.10827295482158661,-0.017853615805506706,0.03373456001281738,0.12146290391683578,0.09234574437141418,0.1261824369430542,-0.11446297913789749,-0.1351291835308075,0.054178908467292786,-0.022491544485092163,0.1673436313867569,-0.18198642134666443,-0.12076374143362045,0.10580695420503616,0.04164956510066986,0.18356603384017944,0.1881813257932663,0.14171580970287323,0.09242285043001175,-0.043886277824640274,0.041027847677469254,0.05714787170290947,-0.03586459532380104,0.0891677662730217,-0.056687723845243454,-0.0017770291306078434,-0.19783231616020203,-0.10164361447095871,0.12924794852733612,-0.05032741650938988,-0.15670666098594666,-0.11425922811031342,-0.17833919823169708,0.08026593923568726,-0.004257173277437687,-0.1905202567577362,0.026607943698763847,-0.03967718034982681,-0.15811602771282196,0.0743667408823967,0.013802241533994675,0.13643348217010498,0.19674955308437347,0.04159253463149071,-0.12368205189704895,-0.15155889093875885,-0.11726703494787216,-0.12711982429027557,-0.08806808292865753,-0.09864863008260727,0.1243467926979065,0.19694358110427856,0.04736318811774254,0.08401607722043991,0.14692384004592896,0.17916184663772583,-0.009124702773988247,-0.12661896646022797,0.18919751048088074,0.10233864188194275,-0.09686814248561859,0.12819501757621765,0.165790855884552,-0.09007474780082703,-0.02688862755894661,-0.025204559788107872,-0.07944045960903168,0.09669625759124756,0.08148378133773804,-0.06053699925541878,0.05609238147735596,0.027972718700766563,-0.04704435542225838,0.18707279860973358,0.18504172563552856,-0.028692202642560005,0.15592801570892334,-0.1681090146303177,0.11208851635456085,0.11155583709478378,0.16240350902080536,-0.02000986412167549,0.18594478070735931,-0.09004104882478714,-0.11294514685869217,-0.014663808047771454,0.01938389614224434,-0.1020437553524971,-0.19061733782291412,0.040253810584545135,0.13183410465717316,0.08703921735286713,-0.08097013831138611,0.18237559497356415,0.06492326408624649,0.17406025528907776,-0.11103860288858414,0.003794674761593342,0.13319984078407288,0.0792974904179573,0.04002866894006729,0.1260821521282196,-0.04644209146499634,0.00016912880528252572,0.09805115312337875,-0.10897130519151688,-0.06001047417521477,-0.07072233408689499,0.08466219902038574,-0.0722111314535141,-0.08436473459005356,-0.1235123872756958,0.03631660342216492,-0.11857519298791885,0.18017339706420898,-0.17662078142166138,-0.06185705214738846,0.1942099779844284,-0.03419097140431404,0.167779803276062,0.1921689808368683,0.03360474482178688,0.15094459056854248,0.1609095335006714,0.10783392190933228,0.06592719256877899,0.030323902145028114,-0.06595318764448166,0.1464231014251709,-0.15954038500785828,0.042363040149211884,-0.19795143604278564,0.1026173010468483,0.07617949694395065,0.1324550211429596,-0.015141275711357594,0.16317419707775116,0.03781247138977051,-0.1332179605960846,0.1743650883436203,0.07172133028507233,0.06857511401176453,-0.0045021940022706985,-0.14295955002307892,-0.07524003833532333,0.033848509192466736,-0.07218369096517563,-0.06688651442527771,0.0884397104382515,0.04534017667174339,-0.15216700732707977,0.06838332861661911,0.016532978042960167,0.1183469146490097,0.10899847000837326,-0.10284403711557388,0.17396517097949982,0.07535821944475174,0.0002341209474252537,-0.17586643993854523,0.18965624272823334,0.19953744113445282,0.14584028720855713,-0.18433302640914917,0.16801953315734863,0.03663821518421173,-0.059011563658714294,0.017634278163313866,-0.11502401530742645,0.10983312875032425,0.18990705907344818,0.17542089521884918,0.02841126173734665,0.004407818894833326,-0.1579354852437973,-0.1855548620223999,0.0740082859992981,-0.11377628892660141,-0.09444786608219147,-0.14406752586364746,0.15306417644023895,0.08710979670286179,-0.14029808342456818,-0.18780124187469482,-0.1366100311279297,-0.002878078492358327,-0.18996690213680267,0.03435923159122467,-0.14633218944072723,-0.15878738462924957,0.016644470393657684,-0.008851840160787106,0.0738186463713646,-0.1271200031042099,-0.0615442618727684,0.0018913153326138854,-0.17286361753940582,0.0005893307970836759,0.1405743658542633,0.10658500343561172,-0.002904725493863225,-0.1388268917798996,-0.1534644514322281,-0.18673545122146606,0.0385173000395298,-0.1985621303319931,0.18344387412071228,0.009468392468988895,0.12440498918294907,0.07062812894582748,0.0050687422044575214,0.018437040969729424,-0.16859668493270874,0.11001645773649216,0.04155632480978966,-0.17771266400814056,0.16241350769996643,0.15112486481666565,-0.12819631397724152,0.18509045243263245,0.005789587739855051,-0.18368880450725555,0.11419948935508728,0.0031733138021081686,0.12453199923038483,0.19329772889614105,0.10713231563568115,0.04609903320670128,-0.02418340928852558,0.16942785680294037,-0.019823303446173668,-0.139988973736763,0.09197214990854263,0.09590944647789001,-0.11745955049991608,-0.1845191866159439,0.011497828178107738,-0.009009825065732002,0.12885849177837372,-0.1666964441537857,-0.12252344936132431,0.0931941345334053,-0.062490422278642654,-0.07331224530935287,-0.06586706638336182,-0.19373299181461334,0.06885507702827454,0.01849553920328617,0.12526023387908936,0.10154711455106735,-0.17446215450763702,0.1226428747177124,-0.00727427564561367,-0.1102026179432869,-0.026939818635582924,-0.05921342223882675,-0.04985147714614868,0.07996967434883118,-0.10887119174003601,0.04685728996992111,0.008577699773013592,-0.11322713643312454,-0.03531777858734131,-0.00355783523991704,0.05699050426483154,-0.13416297733783722,-0.15019235014915466,-0.09271375834941864,-0.08229484409093857,-0.1900498867034912,0.1790790855884552,-0.10954569280147552,0.11639568209648132,-0.08894194662570953,0.1247292086482048,-0.09983282536268234,0.069682776927948,-0.013606006279587746,0.12421020120382309,-0.08179972320795059,0.19278405606746674,-0.15222862362861633,0.16820977628231049,-0.0341302827000618,0.18682217597961426,-0.07035879045724869,0.026279641315340996,0.007362046744674444,0.08915950357913971,0.09400336444377899,-0.11514060199260712,-0.05741119012236595,-0.1344798505306244,-0.05793791636824608,0.14716017246246338,-0.14432993531227112,0.0891510620713234,-0.03583255037665367,-0.06936375796794891,-0.06353145092725754,0.19538360834121704,0.03587212413549423,0.19729192554950714,0.19871383905410767,0.0746302679181099,-0.1511625200510025,-0.11222971975803375,0.19830894470214844,0.13305127620697021,-0.06863606721162796,0.07206594944000244,0.18202713131904602,0.07342007011175156,-0.03858846053481102,-0.07172299176454544,0.13762521743774414,0.03690180554986,-0.17198383808135986,0.12422679364681244,-0.0925406739115715,0.03319085016846657,0.014502414502203465,-0.03225243091583252,-0.04982550069689751,-0.012545657344162464,-0.020131759345531464,-0.19024547934532166,-0.00830760132521391,-0.043509554117918015,-0.007485638838261366,-0.005938512273132801,-0.11919042468070984,-0.0934748724102974,-0.012270111590623856,-0.07396290451288223,-0.15647561848163605,-0.10636736452579498,0.08795808255672455,-0.1405353546142578,0.02927551046013832,0.04232428967952728,0.022669071331620216,-0.05849074572324753,0.023049257695674896,-0.007924727164208889,0.07961980253458023,-0.026521483436226845,0.11232499033212662,-0.04900103062391281,-0.1613411009311676,-0.1663471907377243,0.0030207897070795298,0.022609572857618332,0.007025124970823526,0.13198627531528473,0.03058036044239998,-0.16943691670894623,-0.12370247393846512,0.18834219872951508,0.001054162043146789,0.16659466922283173,-0.18607816100120544,0.07978138327598572,0.03507167100906372,-0.04405594989657402,-0.16560733318328857,-0.1174297109246254,0.17166613042354584,0.199027419090271,0.12016252428293228,-0.0770045593380928,-0.1318567395210266,-0.1556452065706253,0.09579834342002869,0.11731918156147003,0.1080227643251419,-0.03699033707380295,0.14049041271209717,0.17520567774772644,0.11608504503965378,-0.19881227612495422,-0.09735453128814697,0.16679643094539642,0.09238820523023605,0.11806071549654007,-0.08207572996616364,0.1821102350950241,-0.02202087640762329,-0.1925307661294937,0.02980770729482174,0.16081134974956512,0.13956421613693237,0.07842686772346497,0.11141577363014221,0.10292020440101624,0.16045352816581726,0.02393469586968422,-0.17897768318653107,-0.05269472301006317,-0.1253073662519455,0.1767805814743042,-0.01682334393262863,0.16540011763572693,-0.1955045908689499,0.12131310254335403,0.060333795845508575,0.04038714990019798,-0.13941611349582672,0.06525164097547531,0.08967719972133636,-0.11078885942697525,-0.178829163312912,-0.13512706756591797,0.131300687789917,-0.039369791746139526,0.1038331687450409,0.1225079745054245,0.007610775530338287,-0.13132889568805695,0.18081629276275635,0.18577419221401215,-0.041217654943466187,-0.07932829111814499,0.09913496673107147,-0.13825616240501404,-0.17642925679683685,-0.13121457397937775,-0.05626312643289566,-0.021205829456448555,0.07180685549974442,0.10768885910511017,0.061909474432468414,0.1662418693304062,0.18237732350826263,0.1307353377342224,-0.10411934554576874,-0.08021537959575653],[0.14592093229293823,-0.06933175027370453,-0.022726774215698242,0.008926374837756157,-0.07968746870756149,0.05625006929039955,0.06264711916446686,0.060804542154073715,0.005957248155027628,0.14876623451709747,0.035452116280794144,-0.01780484989285469,-0.18011680245399475,-0.028058238327503204,-0.19899065792560577,-0.06070813164114952,-0.07144813239574432,0.09834564477205276,-0.19113202393054962,-0.17495380342006683,0.1002722680568695,0.14015789330005646,0.035042740404605865,0.1467984914779663,-0.00445755897089839,-0.00795040838420391,0.10827697813510895,-0.17520953714847565,0.19553418457508087,0.11488548666238785,0.10664238780736923,-0.0791580080986023,-0.08715120702981949,0.0018744238186627626,0.1826440393924713,-0.19641029834747314,0.09361616522073746,0.13114483654499054,0.015554089099168777,0.051383256912231445,0.17498202621936798,0.08878422528505325,0.10380890965461731,0.0023609630297869444,-0.11947672814130783,-0.04243221879005432,-0.18925660848617554,-0.13980430364608765,0.16922129690647125,0.008952850475907326,-0.03526129573583603,-0.11279593408107758,-0.11418087780475616,-0.14499124884605408,0.11179498583078384,-0.03269373998045921,0.19359199702739716,-0.024287277832627296,0.15744201838970184,-0.04744410887360573,0.06986165791749954,0.13355350494384766,0.1560925990343094,-0.07407302409410477,0.0966997891664505,-0.10573454201221466,-0.044834766536951065,-0.01653178036212921,0.044470760971307755,-0.10010911524295807,0.006094933953136206,0.00794208887964487,-0.11960260570049286,0.02280205674469471,0.06403806805610657,-0.13300451636314392,0.039271313697099686,-0.19859753549098969,0.017274240031838417,0.08653102815151215,0.04991687089204788,-0.031067311763763428,-0.10444293916225433,0.04533366113901138,0.18455396592617035,0.028574369847774506,0.10166137665510178,0.1357485055923462,0.10089081525802612,-0.09838619828224182,0.11007961630821228,-0.02025044895708561,0.10827667266130447,-0.1637083888053894,0.12068693339824677,-0.035510241985321045,0.006075294688344002,0.005633702035993338,0.013943443074822426,-0.06320259720087051,0.034463074058294296,-0.06333468854427338,0.04311346635222435,-0.17912442982196808,-0.19924212992191315,0.18889643251895905,0.09730612486600876,0.006494081579148769,-0.15137514472007751,0.15739595890045166,0.17060589790344238,-0.09931791573762894,0.07754849642515182,-0.009060027077794075,0.07048484683036804,0.003931028768420219,-0.15901979804039001,0.16020804643630981,-0.05522026866674423,-0.0016962174559012055,0.10539872944355011,0.06140070781111717,-0.12738963961601257,0.017668094485998154,0.19723187386989594,-0.0754491314291954,-0.023714477196335793,-0.06423501670360565,-0.012145274318754673,0.19084063172340393,-0.12357987463474274,-0.181501567363739,0.11290493607521057,-0.11867322027683258,-0.05012718588113785,0.0395655483007431,0.061565957963466644,0.11625141650438309,0.17467562854290009,-0.10702771693468094,-0.18582196533679962,-0.014895760454237461,-0.034695763140916824,0.1677471548318863,-0.15703444182872772,-0.045248594135046005,-0.07080840319395065,0.1333409696817398,0.12722639739513397,0.15997755527496338,-0.0797882154583931,-0.06649240851402283,0.019853105768561363,-0.09944713860750198,0.18887561559677124,0.08173656463623047,0.030774295330047607,0.049262382090091705,0.09950672090053558,0.05817509815096855,0.14826469123363495,-0.01415439136326313,-0.18573720753192902,0.05951925367116928,-0.03852025419473648,0.1292196363210678,-0.07281670719385147,0.1654568463563919,0.15457908809185028,-0.19842982292175293,0.009274978190660477,0.15383076667785645,0.17497822642326355,0.058712348341941833,0.0912914127111435,0.08415418118238449,0.07032863795757294,-0.011193972080945969,-0.019410468637943268,0.06842514872550964,-0.04324059560894966,-0.10722813010215759,0.10575880855321884,0.03487506881356239,-0.16104136407375336,-0.10397494584321976,-0.0896390900015831,-0.16694466769695282,0.15729153156280518,-0.03200571611523628,0.10116273909807205,-0.07515899091959,-0.13805927336215973,0.08979801088571548,-0.08301171660423279,-0.18167409300804138,-0.15479619801044464,0.02894561178982258,0.10685346275568008,0.15928299725055695,-0.1794195920228958,0.06375293433666229,0.17214085161685944,0.15763555467128754,-0.13015122711658478,-0.03996670991182327,0.10010841488838196,0.045181650668382645,0.018030425533652306,-0.011360864154994488,-0.12528662383556366,-0.0445358082652092,-0.09751532226800919,-0.13382960855960846,0.164262056350708,-0.01132226549088955,-0.01899174600839615,0.1108243390917778,0.02208949252963066,0.13498450815677643,0.06225674971938133,0.0705723986029625,0.05397893115878105,-0.056040842086076736,0.1712394803762436,-0.17846925556659698,-0.1154387891292572,0.10808625817298889,-0.14220671355724335,0.16871702671051025,-0.10393999516963959,-0.17662492394447327,-0.1298845261335373,-0.04192470386624336,0.13709908723831177,-0.15196017920970917,-0.15989020466804504,-0.1464472860097885,0.16286657750606537,0.08573033660650253,0.12580528855323792,0.05533931404352188,0.04153744503855705,-0.1770675927400589,-0.08470360934734344,0.05336599797010422,0.17295965552330017,-0.11462893337011337,0.04580651596188545,-0.059128537774086,-0.025864828377962112,-0.13607478141784668,-0.011698568239808083,-0.11519809812307358,0.16362698376178741,0.16736970841884613,-0.14883746206760406,0.0343446284532547,-0.14512012898921967,0.150498166680336,0.10283717513084412,-0.14296729862689972,0.10532733052968979,0.19508464634418488,-0.060979217290878296,-0.13095347583293915,0.16467101871967316,-0.04566463083028793,-0.03130163997411728,-0.031350184231996536,-0.11040087789297104,-0.10794235020875931,-0.07944220304489136,0.10921555757522583,-0.042347393929958344,0.05471975728869438,-0.024211835116147995,0.02092832885682583,0.16891831159591675,0.15805518627166748,-0.046261195093393326,-0.00022062267817091197,0.12461229413747787,-0.03721402958035469,0.10290218144655228,-0.05443313345313072,-0.14143803715705872,-0.055051397532224655,0.14647823572158813,-0.07862666994333267,-0.18438264727592468,0.11310994625091553,-0.07244156301021576,-0.016561491414904594,-0.12501630187034607,-0.11106464266777039,-0.18029381334781647,0.1681613028049469,0.03835160285234451,0.17293696105480194,0.002369035966694355,-0.07598581910133362,0.17199966311454773,-0.12175056338310242,-0.07405371963977814,0.1641632467508316,-0.13405458629131317,-0.1291578859090805,-0.1688426434993744,0.044709011912345886,0.07389064878225327,0.10465680062770844,0.01576082408428192,0.14966155588626862,0.10344286262989044,0.11502105742692947,-0.030964158475399017,-0.0005402496317401528,-0.15990304946899414,-0.023076694458723068,-0.19887708127498627,-0.050819773226976395,0.06768415868282318,-0.18239209055900574,-0.10774631798267365,0.08441697806119919,0.04891931638121605,-0.1274135708808899,0.05008532479405403,-0.08020913600921631,-0.04431115463376045,0.1886836588382721,-0.15281225740909576,-0.17910216748714447,-0.11443037539720535,0.13319124281406403,0.18576927483081818,-0.11370722949504852,-0.0995626300573349,0.011112566106021404,-0.07337194681167603,-0.02789205126464367,0.06385038048028946,0.08179053664207458,0.1334821730852127,-0.16043391823768616,-0.16272585093975067,0.07486787438392639,-0.1836477667093277,0.04024273529648781,0.0828937441110611,0.09232139587402344,-0.0742742270231247,0.13524582982063293,0.07081199437379837,0.17528443038463593,0.07972145080566406,-0.18760639429092407,0.0500209778547287,-0.07702808827161789,-0.18063271045684814,0.024903589859604836,-0.027535155415534973,0.039359018206596375,-0.01648890972137451,0.04261638969182968,-0.050568945705890656,-0.010670099407434464,0.06592881679534912,-0.1624794602394104,-0.10531924664974213,-0.03256295621395111,-0.10555671900510788,0.020879877731204033,-0.17354772984981537,-0.09354180842638016,0.06763050705194473,-0.01966130919754505,-0.1616343855857849,0.18160635232925415,0.09237752854824066,0.13193140923976898,-0.09912442415952682,0.051768261939287186,-0.05497748777270317,0.1509479582309723,0.04781252518296242,-0.18623650074005127,-0.1446131020784378,-0.12305810302495956,-0.07428044080734253,-0.03991198539733887,0.10053829848766327,-0.021325595676898956,0.028262661769986153,-0.07860461622476578,-0.18197302520275116,0.03253593295812607,-0.03868488222360611,0.1625003218650818,-0.15004242956638336,0.04766986519098282,-0.11999683082103729,0.0027397810481488705,-0.1348218023777008,0.054061587899923325,-0.14880146086215973,0.18513359129428864,-0.10110662132501602,0.1198115423321724,-0.027771662920713425,-0.06403734534978867,-0.1498536616563797,0.001880940399132669,-0.16733138263225555,-0.06712283194065094,0.11570582538843155,0.12391533702611923,-0.15479840338230133,-0.12400518357753754,-0.18601445853710175,0.032616741955280304,-0.18183442950248718,-0.019120102748274803,-0.19076243042945862,0.00219773780554533,0.05929407849907875,-0.06079317629337311,-0.13343453407287598,-0.07270772010087967,0.19374430179595947,-0.13369128108024597,-0.1984860599040985,-0.04424165189266205,0.1526208072900772,-0.1251700222492218,-0.0624525211751461,0.07197776436805725,0.15526993572711945,-0.1124076247215271,0.08636025339365005,0.16810791194438934,-0.11148170381784439,0.11713747680187225,0.11716175824403763,-0.09165675938129425,0.05835748463869095,-0.17688198387622833,0.00919023435562849,-0.1841365098953247,0.033532194793224335,0.12539568543434143,-0.19710232317447662,0.12969017028808594,-0.14744944870471954,0.1717112809419632,0.015364628285169601,-0.15428678691387177,-0.1141558513045311,-0.0841679498553276,-0.02052481099963188,0.00540344649925828,-0.03799974545836449,-0.04842015728354454,-0.09819252043962479,-0.1708361655473709,0.02703244797885418,-0.04510366916656494,-0.0037689688615500927,0.022116106003522873,0.10352443903684616,-0.04003043845295906,0.15498200058937073,-0.14739057421684265,0.10974998772144318,-0.04302709177136421,-0.01360526867210865,0.1115739718079567,-0.16607758402824402,-0.013088874518871307,0.038235247135162354,0.03323185816407204,-0.16821397840976715,-0.02635456621646881,-0.02608536183834076,-0.07529444992542267,0.09016165137290955,-0.09700433909893036,-0.13146130740642548,-0.07322265207767487,-0.12398094683885574,-0.10285776108503342,-0.04508719593286514,0.16984398663043976,-0.04666856676340103,-0.12619753181934357,0.011388964019715786,-0.022372255101799965,-0.10859427601099014,-0.045327961444854736,0.096962571144104,-0.09110468626022339,0.0692417323589325,-0.1866975873708725,-0.18125687539577484,-0.15019935369491577,-0.03406751528382301,-0.18525484204292297,0.08367101848125458,0.12567080557346344,-0.035952478647232056,0.05694480240345001,-0.07043340802192688,-0.06019993871450424,0.030811825767159462,-0.12210306525230408,-0.06262098997831345,-0.17873768508434296,0.16145636141300201,-0.09065567702054977,0.16793423891067505,-0.03639974817633629,-0.02710607647895813,-0.042103033512830734,-0.10377028584480286,0.09332970529794693,-0.19220970571041107,0.04239926487207413,-0.1902848333120346,-0.13259965181350708,0.13946747779846191,-0.11937938630580902,0.08529388159513474,-0.04279037192463875,-0.045059461146593094,-0.10877704620361328,0.060597848147153854,-0.184886172413826,0.008272688835859299,0.12278679758310318,-0.11035682260990143,-0.1414281278848648,-0.12956571578979492,-0.030632734298706055,-0.09464716166257858,0.11725248396396637,0.15336325764656067,-0.059326235204935074,0.1397283375263214,0.018283197656273842,0.1322498321533203,-0.12917758524417877,-0.023550402373075485,-0.11186117678880692,-0.04738491773605347,0.14010240137577057,-0.16846832633018494,-0.05851680040359497,-0.08004317432641983,-0.08896186947822571,0.09952598065137863,0.15610042214393616,0.1154639944434166,0.19476620852947235,-0.10428881645202637,0.050317928194999695,-0.1306065022945404,0.022478491067886353,0.025026459246873856,-0.17992742359638214,-0.07740170508623123,-0.18543726205825806,0.11268467456102371,0.05816691741347313,0.03695063292980194,-0.01532233040779829,0.011726338416337967,0.08150067925453186,-0.07871352136135101,0.16233497858047485,0.09184658527374268,0.12940402328968048,0.05452359840273857,0.09779699146747589,0.09344279766082764,0.14596328139305115,-0.010872358456254005,0.05520911514759064,0.1556612104177475,0.07313051074743271,-0.15533478558063507,-0.1525975614786148,0.081731416285038,-0.13029390573501587,0.05060211569070816,0.11101580411195755,0.05635876581072807,-0.08681400865316391,-0.19842630624771118,0.08272134512662888,-0.05140610411763191,0.060071911662817,0.19716386497020721,-0.0013305575121194124,0.10180763900279999,-0.16658280789852142,0.14577935636043549,0.05156296491622925,0.16458158195018768,0.17998702824115753,0.011910605244338512,0.05596567317843437,0.04593394696712494,0.15077592432498932,0.10430749505758286,-0.15715879201889038,-0.18666797876358032,0.007157210726290941,-0.12954923510551453,-0.03158923238515854,-0.04931994900107384,-0.07590710371732712,0.0236450657248497,-0.08305790275335312,0.1724507361650467,0.14345748722553253,0.19237975776195526,-0.04406321048736572,-0.19902203977108002,-0.10565625876188278,0.06438567489385605,0.1078728511929512,-0.09104032814502716,-0.0525076799094677,-0.1145782321691513,0.1008077934384346,-0.09038030356168747,0.12711279094219208,0.15600262582302094,0.19941692054271698,0.18031392991542816,-0.039236899465322495,-0.0641913041472435,0.015245568007230759,-0.08670865744352341,-0.1131688579916954,-0.13695161044597626,-0.08349526673555374,0.10771425813436508,0.18311630189418793,-0.17525744438171387,-0.09885347634553909,0.036112893372774124,0.04865626245737076,-0.12709015607833862,0.033963173627853394,-0.17147737741470337,-0.034408725798130035,-0.13080061972141266,0.03769749402999878,-0.10260988026857376,-0.07671204209327698,-0.13853134214878082,0.05453759804368019,-0.0009298454970121384,0.19659072160720825,0.07191397249698639,-0.06421791762113571,-0.15070785582065582,0.1465303897857666,0.05033513903617859,0.005678367335349321,0.027293238788843155,-0.1282760053873062,-0.13519799709320068,0.16352921724319458,0.09532329440116882,0.051881980150938034,-0.059127867221832275,0.10856341570615768,0.15443624556064606,0.18837212026119232,0.08167508244514465,-0.05880817398428917,-0.12902633845806122,0.15500029921531677,0.16378068923950195,-0.08297187834978104,-0.13919003307819366,0.16901344060897827,-0.03607745096087456,-0.077892005443573,-0.19139359891414642,-0.055430661886930466,-0.039219826459884644,0.0908019095659256,0.08098723739385605,0.0010747507913038135,-0.011318622156977654,0.13751688599586487,-0.11574894934892654,-0.006878443527966738,0.15906885266304016,-0.12618742883205414,0.05234217643737793,-0.12547311186790466,-0.12637892365455627,-0.09245440363883972,-0.16992373764514923,0.13751274347305298,0.17069266736507416,-0.011949476785957813,0.05364956706762314,0.05429833009839058,-0.1766856163740158,0.13664022088050842,0.134951651096344,-0.10547355562448502,-0.011633691377937794,0.1531745046377182,0.19038288295269012,0.006127779372036457,-0.057514484971761703,-0.017690304666757584,0.06610152870416641,0.05265236645936966,0.06908825039863586,-0.09052270650863647,0.05846330150961876,-0.05342675372958183,-0.05710727348923683,-0.06177104264497757,0.0037331345956772566,-0.09469377249479294,-0.022970158606767654,0.059247687458992004,0.018687346950173378,0.1888619065284729,-0.17783479392528534,0.013378806412220001,0.1890491098165512,-0.06814835965633392,-0.11415176093578339,-0.1863638013601303,0.18968206644058228,-0.0522649809718132,-0.18566176295280457,0.037822745740413666,-0.059053290635347366,-0.18352797627449036,0.08588990569114685,-0.15987969934940338,0.14667253196239471,0.1957167685031891,-0.0718943402171135,-0.13892914354801178,0.12150505930185318,-0.013256091624498367,-0.05284433811903,0.17691367864608765,0.09346780925989151,-0.16385677456855774,-0.037637028843164444,-0.13179869949817657,0.18198999762535095,-0.16220080852508545,-0.04136364161968231,-0.19945701956748962,0.17368537187576294,0.01579938642680645,-0.16992250084877014,0.007246871944516897,0.16904842853546143,0.03936953470110893,0.1509876400232315,0.10964003205299377,-0.09407547116279602,-0.009330463595688343,-0.039563924074172974,-0.09952414780855179,-0.003954631742089987,-0.18380969762802124,0.01602930948138237,0.036979012191295624],[0.12373542040586472,-0.09107980132102966,-0.16261422634124756,0.15997304022312164,0.1523866206407547,0.07051289826631546,0.036885350942611694,0.0009817470563575625,0.15097184479236603,-0.18576271831989288,0.029858944937586784,0.09743157029151917,-0.1474400907754898,0.19815832376480103,-0.0313059464097023,0.0033403916750103235,0.09693385660648346,-0.06675904244184494,-0.006224937736988068,-0.11742810904979706,0.05655493214726448,-0.16390955448150635,-0.15876208245754242,-0.12170733511447906,0.021006710827350616,-0.19093844294548035,-0.10109201818704605,-0.15002946555614471,-0.026549657806754112,0.06220902502536774,-0.17991434037685394,0.12910625338554382,-0.05848442390561104,-0.04691845923662186,0.18764552474021912,0.03634939342737198,-0.13023866713047028,-0.19571787118911743,-0.011809810064733028,0.008528181351721287,0.18250064551830292,0.11128688603639603,-0.04065726697444916,0.14694088697433472,0.15857574343681335,0.13408727943897247,0.02336309663951397,-0.035406019538640976,-0.12150692194700241,0.059112511575222015,0.0949321836233139,-0.037653230130672455,-0.13564682006835938,0.17846344411373138,-0.10696149617433548,0.12551914155483246,-0.008478423580527306,0.15110164880752563,-0.04511380195617676,-0.09657388925552368,-0.19319240748882294,-0.17773446440696716,0.07956493645906448,0.08993877470493317,-0.013703622855246067,0.001087128184735775,-0.020570846274495125,-0.19435757398605347,0.09822367131710052,0.11083124577999115,-0.12987901270389557,0.16130253672599792,-0.13770894706249237,-0.1614157110452652,-0.19716276228427887,0.18332155048847198,0.08349735289812088,-0.12835943698883057,-0.06950421631336212,0.07569392025470734,0.0073605929501354694,-0.020986925810575485,0.0811339020729065,0.062213391065597534,-0.013110380619764328,-0.19107677042484283,-0.10914767533540726,0.0754052922129631,-0.12186726182699203,0.1478549838066101,-0.17198221385478973,0.13939127326011658,0.19077235460281372,0.062280718237161636,-0.13628193736076355,-0.16797247529029846,0.0037762911524623632,-0.1403168886899948,0.09974062442779541,-0.013131449930369854,-0.07394756376743317,0.02369958907365799,0.027738314121961594,-0.16592827439308167,0.1615862101316452,-0.03242000937461853,-0.09710723906755447,0.04453479126095772,0.16459931433200836,0.10124312341213226,-0.13143329322338104,0.030057739466428757,-0.08815012127161026,-0.15229274332523346,-0.14901936054229736,0.0624687485396862,0.04831678047776222,-0.11780528724193573,0.12639158964157104,-0.13305866718292236,0.027752166613936424,0.005848099943250418,-0.00783867109566927,0.14619214832782745,-0.16217267513275146,-0.1498246192932129,-0.015147732570767403,0.06643372774124146,-0.02540646679699421,-0.15033866465091705,-0.04911356419324875,-0.14961005747318268,-0.19294846057891846,-0.05837470665574074,0.17976757884025574,-0.1513121873140335,0.12163030356168747,0.032627515494823456,-0.1897125542163849,0.15896113216876984,-0.12591730058193207,0.047287385910749435,-0.013938342221081257,-0.035081375390291214,0.08980348706245422,-0.07745809108018875,-0.1542053073644638,-0.03439712896943092,0.17949162423610687,0.08135286718606949,-0.1214555948972702,-0.19100281596183777,-0.003034629626199603,0.09801989048719406,0.03475926071405411,0.03738223388791084,0.015735028311610222,-0.13471151888370514,-0.087354876101017,0.048778142780065536,-0.13971535861492157,0.13974472880363464,0.02742367796599865,0.09440057724714279,-0.17784659564495087,0.020177260041236877,-0.11087695509195328,0.10652544349431992,-0.14130960404872894,0.16585354506969452,-0.022499732673168182,0.05910298973321915,-0.17412135004997253,-0.06158645078539848,0.14429135620594025,0.1215071827173233,0.12358783930540085,-0.05964750051498413,-0.023685012012720108,0.08620857447385788,0.1689235419034958,0.04535142704844475,-0.12012933939695358,0.08903811126947403,-0.1480971723794937,-0.14825621247291565,-0.06503020972013474,-0.1554328203201294,-0.11869285255670547,0.035307276993989944,0.18203938007354736,-0.02571221813559532,-0.10092014819383621,0.10210435092449188,0.03068750910460949,0.011181982234120369,-0.1116538941860199,-0.18966493010520935,-0.10793859511613846,0.10444675385951996,0.17890848219394684,-0.18273583054542542,0.17893826961517334,0.15078404545783997,0.15428782999515533,-0.1709686517715454,-0.19199663400650024,0.06804149597883224,0.10034593939781189,0.06505125015974045,-0.08518993854522705,-0.15797708928585052,-0.17871882021427155,0.02176474966108799,0.006104456726461649,-0.16945473849773407,-0.004185044672340155,-0.04529513791203499,-0.02387094497680664,0.040339477360248566,0.015636146068572998,0.11324307322502136,0.16119587421417236,0.09307338297367096,-0.07125802338123322,0.03168778866529465,-0.11197353899478912,0.07710166275501251,-0.02924271672964096,0.018094586208462715,-0.0637754425406456,-0.10764610767364502,-0.19556215405464172,-0.10466455668210983,0.05612165853381157,-0.19277323782444,0.028783483430743217,-0.15737955272197723,0.106911800801754,-0.031584687530994415,-0.08303490281105042,0.17643514275550842,-0.003808550303801894,0.019431142136454582,0.12028081715106964,-0.19612334668636322,-0.03914320841431618,-0.11803516745567322,-0.006138406693935394,0.031977906823158264,-0.18083524703979492,0.08516617864370346,-0.08768445998430252,-0.042269036173820496,0.04947472736239433,-0.014422479085624218,-0.12910406291484833,0.07686437666416168,-0.19524557888507843,0.02495385892689228,0.13748712837696075,0.15715767443180084,0.16921843588352203,0.07821256667375565,0.00114265491720289,-0.009542902931571007,-0.17330272495746613,-0.028886429965496063,-0.09410720318555832,0.16614657640457153,-0.20156097412109375,-0.04186186194419861,0.08659633249044418,-0.13183121383190155,0.11956412345170975,-0.1886635273694992,-0.058355242013931274,0.15324875712394714,-0.021494116634130478,0.10624168068170547,0.1671474575996399,0.07184993475675583,-0.008222876116633415,-0.18911854922771454,0.038202378898859024,0.002694569993764162,0.0065720523707568645,-0.015001378022134304,-0.16507382690906525,0.08018030226230621,0.09812247008085251,0.06175452098250389,0.14906872808933258,0.10884670913219452,0.13523010909557343,-0.007086796220391989,-0.10093086957931519,-0.16180908679962158,-0.143001988530159,-0.03594902157783508,-0.15300871431827545,0.012245139107108116,-0.058809276670217514,-0.1626540869474411,0.16662393510341644,-0.156057670712471,-0.061322033405303955,-0.16621224582195282,0.02769775316119194,-0.10141267627477646,-0.11727586388587952,-0.060970794409513474,-0.18666934967041016,0.060875825583934784,0.1535448133945465,-0.19180481135845184,0.17135292291641235,0.15794093906879425,0.1054397001862526,0.08696837723255157,-0.06633676588535309,-0.038910917937755585,-0.027190349996089935,-0.09065261483192444,0.08166009932756424,-0.07306181639432907,-0.15625309944152832,-0.11832255870103836,0.13815844058990479,0.1884184181690216,0.11481780558824539,-0.005619645584374666,-0.19438913464546204,0.05064620450139046,-0.1437750905752182,-0.19799849390983582,-0.08018338680267334,0.15863822400569916,-0.014247908256947994,0.03785319626331329,0.019552700221538544,0.13657444715499878,0.14947310090065002,-0.10779093205928802,0.061541780829429626,0.06685445457696915,-0.15868286788463593,-0.024396643042564392,0.04405283182859421,-0.13209068775177002,-0.10678279399871826,0.04378350079059601,0.1720379889011383,0.07954668998718262,0.03690597042441368,0.12780484557151794,0.06466500461101532,0.12197960168123245,-0.050577402114868164,0.101860411465168,-0.1645832657814026,-0.10195499658584595,0.16172535717487335,0.16584868729114532,-0.1398877054452896,-0.1419883817434311,0.067684106528759,0.057701338082551956,0.14826194941997528,0.027547921985387802,-0.10769709199666977,-0.11925121396780014,-0.13411417603492737,-0.09022712707519531,0.02523951791226864,-0.1728036254644394,0.013429312035441399,-0.14350755512714386,0.14584901928901672,0.0333537682890892,0.07307151705026627,-0.04217228665947914,0.008059902116656303,0.042594537138938904,0.14106355607509613,0.05798055976629257,-0.027346018701791763,0.14729613065719604,-0.19913038611412048,0.07232596725225449,0.028083976358175278,-0.03988974913954735,-0.12446924299001694,-0.06322159618139267,0.08028476685285568,-0.07336186617612839,0.12599749863147736,-0.09821762889623642,-0.18986444175243378,0.15505050122737885,0.14972443878650665,-0.10139647871255875,-0.14827868342399597,0.06987308710813522,0.09147827327251434,0.11001000553369522,0.07824920862913132,-0.18035736680030823,-0.1141873449087143,-0.10969630628824234,0.14018146693706512,0.19192837178707123,-0.006147290579974651,0.03887597471475601,-0.168074831366539,0.08077359199523926,-0.10474928468465805,0.1874566376209259,0.15000267326831818,-0.02877194993197918,-0.13132116198539734,0.12544596195220947,-0.13938669860363007,0.1653985232114792,0.17660552263259888,-0.1229858472943306,-0.16383877396583557,-0.04137567803263664,-0.06299196183681488,-0.14559487998485565,0.11759074777364731,0.047862883657217026,-0.19328856468200684,0.1584017276763916,-0.007616743445396423,0.10796908289194107,-0.10929984599351883,0.01905718818306923,0.14045166969299316,0.014131368137896061,0.1937662661075592,-0.10190466046333313,-0.12313254177570343,0.069105364382267,-0.09860192239284515,-0.1018444076180458,-0.007156228180974722,-0.1608486920595169,0.15283310413360596,-0.06641532480716705,-0.06415453553199768,-0.19449253380298615,0.16032825410366058,0.11046619713306427,-0.058835599571466446,-0.18445007503032684,0.12063006311655045,0.1584789752960205,0.15045863389968872,0.1562943160533905,-0.1985141634941101,0.0272783562541008,0.09544515609741211,-0.06868378072977066,0.011285963468253613,0.051179368048906326,-0.07276459783315659,0.1413547694683075,0.044899292290210724,-0.10622113943099976,-0.03150599077343941,-0.07990952581167221,-0.1631861925125122,-0.02814321592450142,0.07338371872901917,0.03162228316068649,-0.14375118911266327,-0.15183210372924805,0.15645745396614075,0.14489144086837769,0.13374370336532593,-0.03058968298137188,-0.07394056022167206,-0.09994179010391235,-0.028736988082528114,0.1954658180475235,-0.16730915009975433,0.13659851253032684,-0.18327021598815918,0.043062180280685425,0.0185007955878973,0.05339374020695686,-0.20637379586696625,0.0013797263382002711,0.10292886197566986,0.04979729279875755,-0.18340565264225006,-0.12309588491916656,-0.062466803938150406,-0.17940197885036469,0.09198595583438873,-0.17116554081439972,0.12033471465110779,0.09111659228801727,0.09710425138473511,0.009001445956528187,-0.07554566115140915,0.16707400977611542,-0.19413547217845917,0.02648458629846573,-0.1277805119752884,0.04420815408229828,-0.1265678107738495,-0.14593680202960968,-0.0619959756731987,0.12143868207931519,-0.20032334327697754,-0.19416774809360504,-0.021721677854657173,-0.14767886698246002,-0.03287927806377411,-0.19991591572761536,-0.09494084864854813,-0.19494155049324036,-0.1838279664516449,-0.12305177003145218,-0.13293078541755676,-0.06968358904123306,-0.113838329911232,0.1055525466799736,0.1452430784702301,0.0714346244931221,0.11272858083248138,-0.11120148748159409,0.14009234309196472,-0.1111135184764862,0.16398589313030243,-0.004956765100359917,0.06860706210136414,0.009980489499866962,0.17611581087112427,0.02576442062854767,-0.003853651462122798,-0.10618788748979568,0.18899644911289215,-0.17674535512924194,-0.12000604718923569,-0.013017610646784306,0.0954144075512886,-0.18528211116790771,-0.14524629712104797,0.020328665152192116,0.02599198929965496,0.0929456576704979,-0.07856554538011551,0.17365612089633942,0.19597473740577698,0.07076285779476166,0.07900524139404297,-0.07611125707626343,-0.09353601187467575,0.018295584246516228,-0.08894634991884232,0.0641082227230072,-0.06435118615627289,0.11192823201417923,-0.11628230661153793,-0.1315109133720398,-0.04370323568582535,0.18119804561138153,-0.0525626577436924,-0.04115810990333557,0.1003730297088623,0.039518363773822784,-0.11878963559865952,-0.16408684849739075,-0.006692165043205023,0.060528550297021866,-0.10304581373929977,-0.03700488060712814,-0.10081110894680023,-0.19008660316467285,-0.0010879228357225657,0.11477910727262497,0.07388237118721008,0.09227202832698822,0.030075175687670708,0.05987251177430153,-0.059644486755132675,0.10015641152858734,0.12740717828273773,-0.1521468609571457,-0.036912813782691956,0.19046136736869812,-0.08708147704601288,-0.1983904242515564,0.024134734645485878,-0.15289756655693054,-0.0793401449918747,-0.17087355256080627,-0.07075509428977966,0.057548798620700836,-0.188673198223114,0.10101548582315445,0.18896110355854034,-0.015395251102745533,-0.06977470219135284,0.12137293815612793,-0.11040475219488144,-0.02157839573919773,-0.008499329909682274,-0.1739114373922348,-0.15804246068000793,-0.19694319367408752,-0.06673760712146759,0.11522291600704193,-0.02302246354520321,0.04944396764039993,0.0607537105679512,-0.05752725899219513,0.19341596961021423,0.09444329887628555,-0.19557590782642365,0.1495344340801239,0.048433203250169754,0.05640186369419098,0.0472625307738781,-0.20297156274318695,0.07890404760837555,0.03769921511411667,-0.023145606741309166,0.13915438950061798,0.04496898129582405,0.17829708755016327,-0.11977989971637726,-0.17603683471679688,-0.01969807967543602,-0.14290660619735718,0.016556458547711372,-0.06989340484142303,0.05686543881893158,0.09274313598871231,-0.1465253382921219,-0.11014796793460846,0.08511746674776077,-0.15758158266544342,-0.03940297290682793,0.10366681218147278,0.18981359899044037,0.006716617848724127,0.08235632628202438,-0.12289175391197205,-0.06038094311952591,-0.11693762987852097,0.11585888266563416,0.1698136031627655,-0.19694794714450836,0.17468450963497162,0.19101528823375702,-0.03708014264702797,0.17395339906215668,-0.0003703207185026258,-0.11880992352962494,-0.08944370597600937,-0.036948446184396744,-0.12749651074409485,-0.007254821714013815,0.025790514424443245,-0.14500951766967773,0.053889572620391846,-0.16917674243450165,0.13060075044631958,-0.19949191808700562,-0.12549972534179688,0.184278666973114,-0.19742351770401,-0.18894918262958527,-0.11989076435565948,0.07181426882743835,-0.11936704814434052,-0.17496566474437714,-0.07755004614591599,-0.006209146697074175,0.13762114942073822,-0.05365700647234917,-0.12937581539154053,-0.1753818243741989,0.12323286384344101,0.1783411204814911,-0.13399085402488708,0.10574499517679214,0.12578776478767395,0.07014964520931244,-0.012198958545923233,0.08907242119312286,0.027241820469498634,0.09532489627599716,0.04842662438750267,-0.12827548384666443,-0.1027255728840828,-0.1613246351480484,0.15049895644187927,-0.18378430604934692,0.15013018250465393,-0.1760125756263733,-0.13311566412448883,0.1444055587053299,-0.1020938828587532,-0.12370723485946655,-0.068039670586586,-0.1563510149717331,-0.05990824103355408,0.04823702201247215,0.030946584418416023,-0.0034741314593702555,-0.020789530128240585,0.06243302673101425,0.18055666983127594,0.1565684676170349,-0.039253946393728256,0.19463703036308289,-0.08074569702148438,0.019236749038100243,0.1797204315662384,0.07726096361875534,0.0813918188214302,-0.13652943074703217,0.12602683901786804,-0.13289394974708557,0.1405392289161682,0.12720146775245667,-0.012197711504995823,-0.027646299451589584,-0.007232694886624813,0.02184913493692875,-0.028651069849729538,0.13322171568870544,-0.08421744406223297,0.17272472381591797,-0.0664660781621933,0.09921524673700333,0.05000349506735802,-0.14404425024986267,-0.10188642144203186,0.155099555850029,-0.17280037701129913,-0.03455961495637894,0.1537122279405594,-0.18538150191307068,-0.07853654026985168,-0.0424535796046257,-0.10264528542757034,0.09619399160146713,0.17948691546916962,0.11291000992059708,-0.15005506575107574,0.08098394423723221,0.11672884970903397,-0.03859409689903259,0.08646121621131897,-0.04783841595053673,0.08927500247955322,0.08691711723804474,0.19258622825145721,-0.05567507818341255,-0.12178969383239746,-0.12227454036474228,-0.04150072857737541,-0.16592806577682495,-0.041329264640808105,-0.048842597752809525,-0.08329535275697708,-0.06833120435476303,-0.009002462029457092,-0.026324046775698662,0.17434470355510712,0.1486728936433792,0.07258624583482742,0.0755118578672409,-0.16428489983081818,-0.04530822113156319,-0.03363160416483879,-0.18515177071094513,-0.030142495408654213],[0.1410919576883316,0.17270037531852722,0.15847963094711304,-0.17403516173362732,-0.028197068721055984,0.17570960521697998,-0.018182091414928436,0.0001461990614188835,-0.02902667038142681,0.18025565147399902,-0.19070345163345337,-0.03796188533306122,-0.18515841662883759,-0.06553401052951813,0.015281478874385357,0.11749258637428284,0.013732833787798882,0.1659948229789734,0.05583261325955391,0.004738845396786928,-0.14830049872398376,-0.1059192344546318,-0.11150478571653366,-0.13909968733787537,-0.14510478079319,0.047864560037851334,-0.06401377171278,-0.11960430443286896,-0.01756901480257511,-0.11602037400007248,-0.023646201938390732,0.009554613381624222,-0.1333126574754715,0.09339447319507599,-0.1581413745880127,0.04312478378415108,0.13670660555362701,0.0005367757985368371,0.19297145307064056,0.1278260350227356,-0.018801407888531685,-0.08065234124660492,-0.05268891900777817,0.06838527321815491,-0.17499418556690216,0.1935434490442276,-0.10805010795593262,-0.1421974003314972,-0.0796799585223198,0.01199266780167818,0.1753225028514862,-0.16856801509857178,0.09091579169034958,0.02612982876598835,-0.048244986683130264,-0.03334466740489006,0.14917926490306854,0.04166613519191742,-0.004910744726657867,-0.03054659254848957,0.19262562692165375,-0.08932071924209595,-0.0019200461683794856,0.09413871169090271,-0.024486582726240158,0.07163475453853607,-0.07355798035860062,-0.0229045320302248,-0.17382243275642395,-0.18939109146595,-0.1616080403327942,0.06795388460159302,-0.16198250651359558,-0.0645383894443512,-0.16155770421028137,0.15171489119529724,0.1971309632062912,-0.19891676306724548,0.08192224055528641,0.198946014046669,-0.11855665594339371,0.08814248442649841,0.039956048130989075,-0.03777068853378296,0.1911439448595047,0.02536349557340145,0.1775365173816681,0.057013772428035736,0.10001717507839203,-0.07316827774047852,0.10260069370269775,0.17224018275737762,-0.1289117932319641,-0.01166282407939434,0.10121437162160873,-0.04380671679973602,-0.12073135375976562,0.11457662284374237,0.162171870470047,-0.17608869075775146,0.14441409707069397,0.09547705948352814,0.15795105695724487,0.06690225750207901,-0.17998363077640533,0.04323015362024307,-0.1537405252456665,-0.1803905963897705,-0.02538919635117054,0.1684696525335312,0.12023039907217026,0.08294093608856201,-0.10502713918685913,-0.19369137287139893,0.06389458477497101,0.17382527887821198,0.14104868471622467,-0.11903586983680725,-0.13077642023563385,0.021956700831651688,-0.02502797730267048,0.11403804272413254,0.09977810084819794,0.14204135537147522,-0.1765235960483551,-0.12343071401119232,-0.01589033007621765,0.1745346337556839,-0.16803041100502014,-0.11181248724460602,0.06896979361772537,0.07708432525396347,0.16685186326503754,0.08378761261701584,0.016449207440018654,-0.19713523983955383,0.09767460823059082,0.020388605073094368,0.0034081880003213882,-0.0448995865881443,0.10730596631765366,-0.169985830783844,-0.16796943545341492,0.19119298458099365,-0.12764111161231995,-0.11866294592618942,0.05523497983813286,0.1394324153661728,-0.013545695692300797,-0.16753974556922913,0.07051938027143478,-0.15836670994758606,-0.05599922314286232,0.07433512061834335,0.1105986163020134,-0.14553110301494598,0.060099098831415176,0.08751652389764786,0.016322826966643333,-0.08032673597335815,0.181230828166008,-0.17030951380729675,0.19651205837726593,0.09912672638893127,-0.1357850879430771,0.14527706801891327,0.13001511991024017,0.013312269933521748,-0.1575988233089447,0.10426422953605652,-0.06483585387468338,0.1687770038843155,0.09678325057029724,-0.05791308358311653,0.09804578870534897,-0.13580338656902313,0.028380202129483223,0.048461832106113434,-0.06264558434486389,0.13473179936408997,-0.19592046737670898,-0.07304180413484573,-0.07078476250171661,-0.17015203833580017,-0.010553468018770218,-0.07369126379489899,-0.09266053140163422,-0.11997785419225693,0.1936851590871811,0.05982671305537224,-0.0018665895331650972,0.09580354392528534,0.068450428545475,-0.13223735988140106,0.1996363252401352,0.025680793449282646,0.03340849652886391,-0.01587846502661705,-0.12307282537221909,-0.13958212733268738,0.07936318963766098,-0.05431357026100159,-0.17382581532001495,0.05655395984649658,-0.05105653032660484,0.06765963137149811,-0.004273551050573587,-0.15342219173908234,-0.02046482264995575,0.1202925592660904,0.04771382734179497,0.11397659033536911,0.14492730796337128,-0.17166341841220856,0.10817521065473557,0.03416645899415016,0.12526503205299377,-0.11459458619356155,0.008710342459380627,-0.17070256173610687,0.14692099392414093,-0.0033134333789348602,0.047317441552877426,-0.09017464518547058,0.16384059190750122,0.04451562836766243,0.12847864627838135,-0.15480153262615204,-0.04411953315138817,0.17288988828659058,0.07822137326002121,-0.0870594009757042,0.02566296048462391,-0.022639920935034752,-0.11181941628456116,-0.17104089260101318,0.008902306668460369,-0.10252012312412262,0.07924424856901169,0.10661831498146057,0.01748865656554699,0.11625684052705765,0.16410845518112183,-0.15078173577785492,0.1942353993654251,0.16894681751728058,0.19507625699043274,-0.06847119331359863,-0.047826625406742096,-0.12028426676988602,0.02719775401055813,0.14065687358379364,-0.14677642285823822,0.06113757565617561,-0.06576930731534958,0.16306787729263306,-0.15021929144859314,0.08337713032960892,-0.1705167293548584,0.1378585398197174,-0.12099459767341614,-0.16969507932662964,0.020244842395186424,0.007604402024298906,-0.16104747354984283,-0.022662414237856865,0.15395855903625488,0.0726882666349411,-0.14950034022331238,0.09934849292039871,0.15751247107982635,-0.046001601964235306,0.09704586118459702,-0.17048867046833038,-0.008696000091731548,0.13610343635082245,-0.06720051169395447,0.045692604035139084,0.03384843468666077,0.013971542939543724,0.161624476313591,-0.17272119224071503,-0.06797829270362854,-0.17268253862857819,0.021616380661725998,-0.1579076498746872,-0.186616450548172,0.17152760922908783,-0.17563745379447937,-0.156734898686409,0.1658686101436615,-0.055530745536088943,-0.007561787962913513,0.0178378876298666,0.1466217041015625,0.09670376777648926,-0.05544653534889221,0.05894317477941513,-0.0014875703491270542,0.09568756818771362,-0.10744313895702362,-0.15936991572380066,-0.09476642310619354,-0.03824921324849129,0.052530642598867416,-0.0990753173828125,-0.08127442002296448,-0.10068120062351227,-0.09674724191427231,-0.01748853363096714,0.14091594517230988,0.0557967945933342,-0.10957115888595581,0.14640513062477112,0.15929202735424042,-0.15659932792186737,-0.12590041756629944,0.19855858385562897,-0.14825530350208282,-0.19040194153785706,0.13694876432418823,-0.0885038822889328,0.16916461288928986,0.18457810580730438,0.0902370885014534,-0.03905509412288666,0.08073853701353073,0.09029004722833633,-0.12187402695417404,-0.16739684343338013,0.15661577880382538,0.004441315773874521,-0.0532265342772007,0.02214464731514454,0.0743061751127243,0.04863160848617554,-0.14354382455348969,0.089497871696949,-0.12337873876094818,0.1960001289844513,-0.047167666256427765,-0.1565500646829605,0.06370353698730469,0.15745516121387482,-0.03910781070590019,0.08201134949922562,-0.014803123660385609,-0.13638225197792053,0.18155230581760406,0.04547911137342453,-0.14265692234039307,0.06549838185310364,0.1970336139202118,-0.18190152943134308,-0.15865184366703033,-0.026444831863045692,-0.11236055195331573,-0.10452993214130402,-0.0730658620595932,0.1398022174835205,0.11421865969896317,0.055684417486190796,0.1936519891023636,-0.12198222428560257,-0.029011694714426994,-0.04655221104621887,-0.008527056314051151,0.19059701263904572,0.08813902735710144,0.04148373752832413,-0.1264377385377884,-0.10361868143081665,0.12055046856403351,-0.15484140813350677,0.008998368866741657,-0.1629122495651245,0.048984743654727936,0.0528174452483654,-0.10993319749832153,0.1105174720287323,0.1259000599384308,0.033956680446863174,-0.1480201631784439,-0.10836192965507507,0.16075214743614197,-0.03195730969309807,-0.05243031308054924,0.05858631804585457,0.18491576611995697,-0.04533267766237259,0.07487454265356064,-0.1441095918416977,-0.171195387840271,-0.06154173985123634,-0.11730294674634933,-0.15364894270896912,-0.17229072749614716,0.15011700987815857,-0.044529594480991364,-0.09914234280586243,0.12520866096019745,0.0030222341883927584,0.05551901459693909,-0.0887477770447731,-0.16909469664096832,-0.06454399228096008,-0.12201141566038132,0.13001565635204315,-0.19274583458900452,0.01109840627759695,-0.11771602183580399,-0.009842412546277046,-0.08118145912885666,-0.12237995117902756,-0.10116234421730042,0.06689940392971039,0.09991797804832458,-0.15177910029888153,-0.17826177179813385,0.0146745964884758,-0.17345349490642548,-0.15945947170257568,0.017100835219025612,0.10252705961465836,-0.06719502806663513,0.028130294755101204,0.19001993536949158,0.16916997730731964,0.04601325839757919,0.11365018784999847,0.17794880270957947,0.05748361721634865,0.04171181842684746,0.1457495093345642,0.1932031810283661,0.16453896462917328,0.04494865983724594,-0.08752628415822983,0.1400243043899536,0.0603482611477375,-0.14186657965183258,-0.17081506550312042,0.06452110409736633,0.16018100082874298,0.17902232706546783,-0.10295199602842331,-0.04531470686197281,-0.13686063885688782,-0.04794429987668991,-0.0009380716364830732,0.1630684733390808,-0.1899295598268509,0.040723931044340134,0.03143029287457466,0.16708701848983765,-0.1529369354248047,-0.12231859564781189,-0.059416189789772034,-0.14153984189033508,0.10495178401470184,0.14278748631477356,0.14851172268390656,0.053134847432374954,-0.03433312475681305,0.14913557469844818,-0.10223887860774994,-0.1562424600124359,0.11482591181993484,-0.17954185605049133,0.19060799479484558,-0.1272994577884674,-0.12198839336633682,-0.12687134742736816,-0.14426611363887787,0.09190434217453003,-0.04022550955414772,0.07197587192058563,-0.19414888322353363,0.1283770501613617,-0.13606137037277222,0.14076878130435944,0.10078452527523041,0.10392411798238754,-0.16132327914237976,0.1295776665210724,-0.08466419577598572,0.08235251158475876,0.20014521479606628,0.19377730786800385,-0.1183769702911377,-0.13696056604385376,0.13137485086917877,0.08990389853715897,-0.11342311650514603,0.05684812739491463,-0.07805637270212173,0.11254443973302841,0.047087814658880234,-0.13068430125713348,0.10239899158477783,0.04378785565495491,0.18953163921833038,-0.1232835054397583,0.18972797691822052,0.15237946808338165,0.06851347535848618,-0.09569824486970901,-0.026190822944045067,0.11742210388183594,0.1793653517961502,-0.15782049298286438,-0.15969277918338776,-0.1926821917295456,-0.19028499722480774,0.1338871717453003,-0.06373205780982971,-0.06093911826610565,-0.10390699654817581,0.1920471489429474,0.155001699924469,0.0942949429154396,-0.12166241556406021,-0.17251114547252655,0.16155944764614105,0.0798061192035675,0.18121956288814545,0.0008898783707991242,-0.16051986813545227,-0.01949133537709713,0.1893131583929062,-0.08467347919940948,-0.08590870350599289,0.09374755620956421,0.020839810371398926,0.1919870525598526,-0.1789412796497345,-0.06805723905563354,-0.06679490208625793,-0.15421585738658905,0.17329978942871094,0.004729506094008684,-0.11331571638584137,-0.14724916219711304,0.031130408868193626,0.05172561854124069,-0.02751733548939228,0.09812749922275543,0.12565289437770844,-0.17450127005577087,0.008671905845403671,0.12828555703163147,0.14958077669143677,-0.060632895678281784,-0.0030187624506652355,-0.1150112897157669,0.019437255337834358,-0.09216087311506271,-0.0743156373500824,-0.1317461133003235,-0.14804203808307648,0.012403514236211777,-0.07482848316431046,0.05152147635817528,0.1810995638370514,-0.044021520763635635,-0.02665485441684723,0.03506755828857422,-0.08704303950071335,-0.04482744634151459,-0.06426684558391571,-0.17776598036289215,0.08591905981302261,-0.012425702065229416,-0.10532666742801666,-0.1803041249513626,0.18819163739681244,0.03188365697860718,0.04831519350409508,-0.13931842148303986,0.12844745814800262,0.0357828363776207,-0.12192725390195847,-0.13155071437358856,0.1347154676914215,0.1319824457168579,-0.0009537697769701481,0.13151663541793823,-0.07580042630434036,-0.04163556173443794,-0.11905436217784882,-0.1256459504365921,0.1533791869878769,-0.08407404273748398,0.13828985393047333,-0.16216132044792175,-0.07698473334312439,-0.14650020003318787,0.12057512998580933,-0.0512411966919899,0.08023673295974731,-0.09502511471509933,-0.14850451052188873,0.17018939554691315,-0.025090446695685387,-0.06152037903666496,-0.04536162316799164,-0.03703039139509201,-0.07666591554880142,-0.05825135484337807,-0.1511232554912567,0.16266538202762604,-0.04835886135697365,-0.02585524134337902,0.03478119149804115,0.14688575267791748,0.05335831269621849,-0.07476991415023804,-0.1526143103837967,-0.018507642671465874,-0.19355763494968414,-0.015172476880252361,0.17278338968753815,-0.1617158204317093,0.09858392179012299,-0.19551362097263336,0.04688286408782005,-0.054431673139333725,0.012144077569246292,0.02058025449514389,0.11265145242214203,0.11896900832653046,0.09247918426990509,0.18666242063045502,-0.08771434426307678,0.03377272188663483,0.18468570709228516,-0.08617953956127167,-0.10741934180259705,-0.044105276465415955,0.15429890155792236,0.1492803394794464,-0.1609392613172531,0.1872311234474182,-0.12810112535953522,-0.09921247512102127,0.10619581490755081,0.07614796608686447,-0.1626172959804535,-0.027423538267612457,0.023595759645104408,0.12057582288980484,-0.06620195508003235,0.06848207861185074,-0.16555382311344147,-0.045647457242012024,0.1626972109079361,0.17331521213054657,-0.1085822731256485,0.12328935414552689,0.05989006161689758,-0.0706324502825737,0.09142426401376724,0.004634540993720293,0.09166226536035538,0.055592190474271774,-0.14666588604450226,-0.19695799052715302,-0.08958990126848221,0.1379421204328537,0.018868129700422287,-0.029370153322815895,-0.16430845856666565,-0.18090875446796417,-0.15744933485984802,-0.09012282639741898,-0.0384894423186779,0.18305040895938873,0.08775442093610764,-0.05423503369092941,0.15529292821884155,0.19763842225074768,-0.053906362503767014,0.18511620163917542,0.07971768081188202,0.14020314812660217,-0.15581879019737244,0.07174624502658844,-0.14720341563224792,0.09323232620954514,-0.03827948868274689,0.1303282082080841,-0.0749872550368309,-0.1634303778409958,-0.16496071219444275,-0.03474727272987366,-0.03699558600783348,0.0450487844645977,-0.07893751561641693,-0.012172667309641838,0.06643417477607727,0.011735646054148674,-0.17003263533115387,0.0565798357129097,-0.12515109777450562,0.04955052584409714,0.17899513244628906,-0.053740065544843674,0.14330261945724487,-0.0314239002764225,0.15067002177238464,-0.06898188591003418,-0.05159113183617592,0.132361501455307,-0.009764248505234718,0.00761407008394599,0.11303383857011795,-0.01607203669846058,-0.13556872308254242,-0.1804494559764862,-0.14034713804721832,-0.06808875501155853,0.05811966210603714,0.17558227479457855,-0.13757161796092987,-0.12221904844045639,-0.02852647379040718,0.14720194041728973,0.18157826364040375,-0.032402075827121735,-0.02059784345328808,0.020010309293866158,-0.19731779396533966,0.15046051144599915,-0.17866291105747223,0.17768628895282745,-0.025388797745108604,-0.1898796111345291,-0.1429121345281601,0.12722861766815186,-0.10265019536018372,-0.13757100701332092,0.062359169125556946,-0.08904443681240082,0.10527371615171432,-0.1738002449274063,-0.032483361661434174,-0.097225122153759,-0.1016029641032219,-0.10869031399488449,0.04239015653729439,0.020145881921052933,-0.0315265916287899,-0.1363859325647354,0.10926711559295654,0.01568405143916607,-0.06168374419212341,0.09056875109672546,-0.17583265900611877,0.17658859491348267,0.1336785852909088,-0.05122416093945503,0.19094569981098175,0.13107050955295563,0.1519392728805542,0.13677459955215454,0.15031267702579498,-0.19904236495494843,0.09538061916828156,0.04415033012628555,-0.11761295795440674,-0.17684903740882874,-0.08430061489343643,0.1611880362033844,0.0105630774050951,0.1903783082962036,0.06272976100444794,-0.09146260470151901,-0.05235821381211281,0.1291041225194931,-0.19157378375530243,0.06406877189874649,0.15499140322208405,-0.08390283584594727,-0.12218610942363739],[-0.09724943339824677,0.025624649599194527,0.07024071365594864,-0.03951800614595413,0.15010829269886017,0.05305109918117523,-0.0017988086910918355,-0.011421553790569305,-0.08570149540901184,-0.11195702105760574,-0.09140433371067047,-0.015567348338663578,-0.08154366165399551,-0.1355452537536621,0.14570564031600952,0.00662057101726532,-0.17473462224006653,0.06486278772354126,-0.048835381865501404,0.09090769290924072,0.03219849243760109,0.1859191358089447,0.18781407177448273,0.1452275663614273,-0.09976642578840256,0.03506312519311905,-0.17124392092227936,0.1847413331270218,-0.19331879913806915,-0.09160687029361725,0.13364112377166748,-0.06975680589675903,-0.19974000751972198,0.09566859900951385,-0.12542283535003662,-0.08600860089063644,-0.06006758660078049,-0.14332303404808044,-0.18858197331428528,0.1558663249015808,0.19358743727207184,-0.18637828528881073,0.01835392601788044,-0.19207032024860382,-0.08570397645235062,0.13554906845092773,-0.05048898607492447,0.1848529577255249,0.15158043801784515,-0.12215995043516159,0.16581140458583832,0.015019050799310207,0.19603779911994934,-0.1767478734254837,-0.07423187792301178,0.07548346370458603,-0.11481991410255432,-0.17649872601032257,0.018756138160824776,-0.11370202153921127,-0.14225074648857117,0.10593689978122711,-0.041867852210998535,0.0007854094146750867,0.18917706608772278,0.1890663057565689,-0.09456693381071091,-0.14136792719364166,0.13298003375530243,0.18266205489635468,-0.13370847702026367,0.15656979382038116,0.0877237617969513,-0.12295368313789368,0.025930140167474747,0.08791690319776535,0.060774173587560654,0.12040866911411285,0.020902389660477638,-0.07230839133262634,-0.05798313394188881,-0.023365141823887825,0.04884298890829086,-0.193857342004776,0.184103325009346,0.1401021033525467,0.17356480658054352,0.10843505710363388,-0.061914946883916855,0.008031897246837616,0.052147507667541504,0.010608116164803505,-0.06824275106191635,-0.13993380963802338,-0.039704229682683945,-0.06175053119659424,0.0388631597161293,-0.10935875028371811,0.13003499805927277,-0.008628916926681995,0.15116967260837555,0.0672563835978508,-0.09898904711008072,0.00822256039828062,0.0014240513555705547,-0.03362414240837097,-0.1384446620941162,-0.19041708111763,0.015948347747325897,-0.07105403393507004,-0.18421317636966705,-0.0014689848758280277,0.015694474801421165,-0.16120854020118713,0.02825036086142063,-0.1910216063261032,0.09042507410049438,0.1850857436656952,-0.09367462247610092,0.06544728577136993,-0.03119153343141079,-0.13636858761310577,0.07941656559705734,-0.15339066088199615,-0.07718104869127274,0.14751014113426208,0.1342143416404724,-0.1894226372241974,-0.03570184484124184,-0.09435126930475235,0.03747117519378662,-0.08522595465183258,-0.13513274490833282,0.055193983018398285,-0.16758984327316284,0.05033165216445923,0.07605018466711044,0.05676589906215668,0.028928162530064583,-0.15029248595237732,0.02151484414935112,0.11852676421403885,0.05820035561919212,0.14198988676071167,0.06261423975229263,-0.026983022689819336,-0.04124199226498604,0.0617767870426178,-0.01932564191520214,0.12169062346220016,-0.04772084951400757,-0.049661047756671906,-0.10675211250782013,-0.051984768360853195,0.1710788905620575,0.12553445994853973,0.13728101551532745,0.08397779613733292,-0.023548156023025513,0.14718273282051086,-0.19655416905879974,0.10976757109165192,-0.0356019102036953,-0.16961237788200378,-0.1367209106683731,-0.04466591775417328,